svm_type c_svc
kernel_type linear
nr_class 3
total_sv 4
rho 0.8869288607169546 0.9796345122283845 0.7069060880320573
label 3 1 2
nr_sv 1 2 1
SV
8.665576588520868E-5 9.091735612328394E-5 0:2.0 1:1.0 2:1.0 3:2.0 4:3.0 5:1.0 6:1.0 7:3.0 8:1.0 9:1.0 10:9.0 11:1.0 12:2.0 13:1.0 14:3.0 15:2.0 16:5.0 17:5.0 18:14.0 19:2.0 20:1.0 21:1.0 22:1.0 23:1.0 24:1.0 25:1.0 26:1.0 27:2.0 28:1.0 29:1.0 30:1.0 31:3.0 32:1.0 33:2.0 34:1.0 35:1.0 36:1.0 37:2.0 38:1.0 39:10.0 40:1.0 41:35.0 42:1.0 43:2.0 44:1.0 45:2.0 46:17.0 47:1.0 48:2.0 49:4.0 50:1.0 51:1.0 52:1.0 53:1.0 54:5.0 55:3.0 56:1.0 57:1.0 58:1.0 59:1.0 60:1.0 61:25.0 62:13.0 63:5.0 64:7.0 65:1.0 66:4.0 67:3.0 68:3.0 69:3.0 70:1.0 71:2.0 72:1.0 73:1.0 74:1.0 75:2.0 76:1.0 77:19.0 78:25.0 79:1.0 80:1.0 81:2.0 82:2.0 83:1.0 84:1.0 85:4.0 86:4.0 87:1.0 88:2.0 89:1.0 90:2.0 91:4.0 92:3.0 93:3.0 94:1.0 95:1.0 96:3.0 97:18.0 98:18.0 99:2.0 100:3.0 101:1.0 102:2.0 103:1.0 104:1.0 105:1.0 106:1.0 107:1.0 108:1.0 109:9.0 110:2.0 111:1.0 112:23.0 113:2.0 114:1.0 115:1.0 116:2.0 117:2.0 118:2.0 119:1.0 120:1.0 121:2.0 122:2.0 123:4.0 124:1.0 125:1.0 126:1.0 127:1.0 128:1.0 129:1.0 130:2.0 131:6.0 132:1.0 133:1.0 134:3.0 135:1.0 136:1.0 137:10.0 138:6.0 139:6.0 140:1.0 141:1.0 142:1.0 143:4.0 144:1.0 145:2.0 146:1.0 147:1.0 148:2.0 149:34.0 150:4.0 151:3.0 152:1.0 153:1.0 154:1.0 155:10.0 156:3.0 157:1.0 158:2.0 159:32.0 160:4.0 161:2.0 162:1.0 163:18.0 164:3.0 165:5.0 166:4.0 167:3.0 168:3.0 169:2.0 170:2.0 171:1.0 172:1.0 173:4.0 174:1.0 175:4.0 176:2.0 177:2.0 178:1.0 179:2.0 180:12.0 181:21.0 182:1.0 183:2.0 184:5.0 185:5.0 186:1.0 187:1.0 188:1.0 189:1.0 190:46.0 191:4.0 192:3.0 193:2.0 194:1.0 195:15.0 196:1.0 197:1.0 198:1.0 199:1.0 200:5.0 201:1.0 202:1.0 203:1.0 204:4.0 205:4.0 206:22.0 207:12.0 208:2.0 209:20.0 210:2.0 211:1.0 212:1.0 213:6.0 214:3.0 215:5.0 216:16.0 217:20.0 218:1.0 219:1.0 220:46.0 221:1.0 222:7.0 223:4.0 224:4.0 225:4.0 226:2.0 227:2.0 228:8.0 229:1.0 230:1.0 231:2.0 232:2.0 233:1.0 234:2.0 235:1.0 236:2.0 237:2.0 238:2.0 239:1.0 240:5.0 241:7.0 242:1.0 243:1.0 244:3.0 245:1.0 246:1.0 247:2.0 248:63.0 249:3.0 250:3.0 251:1.0 252:1.0 253:1.0 254:45.0 255:2.0 256:2.0 
-5.134181198523876E-5 7.74437667368249E-4 257:1.0 258:1.0 259:1.0 4:1.0 260:1.0 261:15.0 262:1.0 263:1.0 264:1.0 265:5.0 6:2.0 266:1.0 267:4.0 268:1.0 269:1.0 148:1.0 270:1.0 271:2.0 272:2.0 273:1.0 274:2.0 275:1.0 276:1.0 277:2.0 278:1.0 279:2.0 280:1.0 281:1.0 282:1.0 283:2.0 284:1.0 285:5.0 286:1.0 287:1.0 288:1.0 289:1.0 290:2.0 291:1.0 292:1.0 293:1.0 294:1.0 295:3.0 296:1.0 297:1.0 298:1.0 35:1.0 299:1.0 300:1.0 301:1.0 302:1.0 39:1.0 303:1.0 304:1.0 305:1.0 306:1.0 177:3.0 176:1.0 307:9.0 308:1.0 181:2.0 309:1.0 310:1.0 311:1.0 312:1.0 313:9.0 314:1.0 315:1.0 316:2.0 317:1.0 318:2.0 319:3.0 320:1.0 321:1.0 322:1.0 323:4.0 324:3.0 190:4.0 325:2.0 326:2.0 327:1.0 328:1.0 329:1.0 192:6.0 330:7.0 331:2.0 332:1.0 333:2.0 334:1.0 335:1.0 336:1.0 337:2.0 338:1.0 339:1.0 340:1.0 341:1.0 78:1.0 342:2.0 210:4.0 343:1.0 344:2.0 345:22.0 216:4.0 346:1.0 347:8.0 348:1.0 349:1.0 350:1.0 219:1.0 92:1.0 351:4.0 352:1.0 353:1.0 354:1.0 355:3.0 356:1.0 357:1.0 358:1.0 226:2.0 359:1.0 360:18.0 361:1.0 362:1.0 363:1.0 364:2.0 365:3.0 366:1.0 367:2.0 101:3.0 368:2.0 369:2.0 370:1.0 108:1.0 371:2.0 372:1.0 110:3.0 113:2.0 373:2.0 374:3.0 375:1.0 376:1.0 377:2.0 378:1.0 120:1.0 379:2.0 380:16.0 381:6.0 382:1.0 383:2.0 384:1.0 385:6.0 386:1.0 387:5.0 388:2.0 389:2.0 390:1.0 126:2.0 391:1.0 128:5.0 392:2.0 393:1.0 394:5.0 395:1.0 
-3.531395389996991E-5 5.33915803130521E-4 396:1.0 397:1.0 1:1.0 398:1.0 4:2.0 399:1.0 400:2.0 401:1.0 402:7.0 403:2.0 404:1.0 405:1.0 406:2.0 407:1.0 14:1.0 408:1.0 409:1.0 410:1.0 411:1.0 281:1.0 17:1.0 412:2.0 413:2.0 285:1.0 414:1.0 415:7.0 416:1.0 417:1.0 418:1.0 286:2.0 288:1.0 419:1.0 24:7.0 420:1.0 421:1.0 422:1.0 423:1.0 424:1.0 294:1.0 425:1.0 426:1.0 427:1.0 32:1.0 428:4.0 429:1.0 430:3.0 431:1.0 432:2.0 433:1.0 434:1.0 46:1.0 435:1.0 436:1.0 437:1.0 438:1.0 307:2.0 439:1.0 440:1.0 310:1.0 441:1.0 442:1.0 56:1.0 313:10.0 443:1.0 59:2.0 444:2.0 445:1.0 316:1.0 446:1.0 321:5.0 67:3.0 325:3.0 447:2.0 448:1.0 449:1.0 450:2.0 451:1.0 452:1.0 453:1.0 454:1.0 455:1.0 456:1.0 457:1.0 458:1.0 459:1.0 460:1.0 461:2.0 462:1.0 463:1.0 464:2.0 77:2.0 465:1.0 466:1.0 467:1.0 468:1.0 469:1.0 470:1.0 87:2.0 347:8.0 471:1.0 472:1.0 92:2.0 473:1.0 474:1.0 475:1.0 476:1.0 355:1.0 477:1.0 359:1.0 360:11.0 478:1.0 479:6.0 480:2.0 481:1.0 98:2.0 482:2.0 367:5.0 101:3.0 369:1.0 483:2.0 484:3.0 485:1.0 108:1.0 110:9.0 486:2.0 487:4.0 488:2.0 489:1.0 113:1.0 490:1.0 491:1.0 374:5.0 492:1.0 376:1.0 493:1.0 494:1.0 495:1.0 496:1.0 122:1.0 497:1.0 380:16.0 382:3.0 498:1.0 499:1.0 389:1.0 126:6.0 128:25.0 392:1.0 393:3.0 131:1.0 500:1.0 501:1.0 261:4.0 502:1.0 265:3.0 503:1.0 504:1.0 148:1.0 505:1.0 506:1.0 507:1.0 508:1.0 509:4.0 510:1.0 152:1.0 283:1.0 511:1.0 512:1.0 513:2.0 154:1.0 287:1.0 514:1.0 515:1.0 289:2.0 516:1.0 517:1.0 518:2.0 519:1.0 520:1.0 297:1.0 521:1.0 522:1.0 163:1.0 523:1.0 298:3.0 524:1.0 525:4.0 169:2.0 526:1.0 527:1.0 528:1.0 529:1.0 530:1.0 531:1.0 177:1.0 176:1.0 175:4.0 532:3.0 181:8.0 533:3.0 534:1.0 535:2.0 184:2.0 536:1.0 537:1.0 318:1.0 538:1.0 539:1.0 540:1.0 322:1.0 190:9.0 541:2.0 323:9.0 327:1.0 542:3.0 543:1.0 544:1.0 192:14.0 330:7.0 331:2.0 194:3.0 545:2.0 546:4.0 547:1.0 548:2.0 549:1.0 339:3.0 550:1.0 551:1.0 552:1.0 553:1.0 208:1.0 554:1.0 555:3.0 556:1.0 557:1.0 345:2.0 558:1.0 214:2.0 216:19.0 559:1.0 560:2.0 349:1.0 561:2.0 562:1.0 563:1.0 564:1.0 351:2.0 565:2.0 353:2.0 566:2.0 567:1.0 356:5.0 226:10.0 568:1.0 569:1.0 570:1.0 571:1.0 364:1.0 572:3.0 573:1.0 574:1.0 575:1.0 576:1.0 372:1.0 577:2.0 239:1.0 243:1.0 578:1.0 375:2.0 579:1.0 580:3.0 377:1.0 581:1.0 248:1.0 582:1.0 379:2.0 583:1.0 584:1.0 385:3.0 585:1.0 387:7.0 586:1.0 587:2.0 588:1.0 589:1.0 
-9.091735612328394E-5 -0.0013083534704987697 590:1.0 591:1.0 592:1.0 593:1.0 594:1.0 595:1.0 596:1.0 346:1.0 597:1.0 598:1.0 471:1.0 599:2.0 600:1.0 601:7.0 602:1.0 603:1.0 604:1.0 605:1.0 606:1.0 22:10.0 607:1.0 608:1.0 609:1.0 223:1.0 610:1.0 611:1.0 612:1.0 613:1.0 614:1.0 423:1.0 615:1.0 616:1.0 617:1.0 570:1.0 618:1.0 619:1.0 620:1.0 621:1.0 622:1.0 369:1.0 623:2.0 624:1.0 625:1.0 626:2.0 627:1.0 628:1.0 629:1.0 630:2.0 631:1.0 632:1.0 633:2.0 634:1.0 635:1.0 314:1.0 636:1.0 637:1.0 638:1.0 639:1.0 640:1.0 641:1.0 642:1.0 643:1.0 
