svm_type c_svc
kernel_type linear
nr_class 4
total_sv 248
rho -0.9867565461043306 -0.9924769655724559 -0.9894047719095788 -0.28048959744172813 -0.1154315647366916 0.16932539985402384
label 3 1 2 4
nr_sv 244 2 1 1
SV
6.464737226841277E-4 3.5890984491242716E-4 5.191729572609161E-4 1:0.0625 2:0.7258064516129032 3:0.14919354838709675 4:0.3911290322580645 5:0.6048387096774193 6:1.0 7:0.596774193548387 8:0.2661290322580645 9:0.16129032258064513 10:0.1935483870967742 11:0.29516129032258065 13:0.596774193548387 12:0.8467741935483871 14:0.16129032258064513 15:0.2992100065832785 16:0.5870967741935483 17:0.967741935483871 18:0.5645161290322581 19:0.3548387096774194 20:0.564516129032258 21:0.19556451612903225 22:0.5806451612903226 23:0.5201612903225806 24:0.4233870967741935 25:0.31105990783410137 26:1.0 27:1.0 28:1.0 29:0.22849462365591397 30:0.03827108092812677 31:0.1596774193548387 32:0.4879032258064515 33:0.08294930875576036 34:0.33064516129032256 35:0.5645161290322581 36:0.06451612903225806 37:0.7258064516129031 38:0.22983870967741934 39:0.5982404692082111 40:0.20564516129032256 41:0.7056451612903226 42:0.1851478494623656 43:0.09408602150537633 44:0.5524193548387096 45:0.25 46:0.1663306451612903 47:0.5870967741935483 48:0.49810246679316883 49:0.23655913978494625 50:0.06048387096774194 51:0.24798387096774188 52:1.0 53:0.7338709677419354 54:0.43951612903225806 55:0.20645161290322578 56:0.10080645161290323 57:0.7338709677419355 
1.7943128944908294E-4 1.0240376692167995E-4 1.4529721796802117E-4 58:0.39490445859872614 59:1.0 61:0.4872611464968153 60:0.5265392781316348 62:1.0 64:0.07537154989384288 63:0.16878980891719747 65:0.28343949044585987 66:1.0 67:0.11783439490445859 68:0.3917197452229299 69:1.0 70:1.0 71:0.4617834394904459 72:1.0 73:1.0 74:0.22611464968152867 75:0.060509554140127396 76:1.0 77:1.0 78:0.8885350318471338 79:0.11146496815286625 21:0.07722929936305734 83:0.17197452229299365 82:0.16050955414012738 80:1.0 81:0.03309332594849072 84:0.07006369426751592 86:0.302547770700637 85:0.11146496815286626 87:0.05201698513800425 90:0.39490445859872614 89:0.11146496815286625 88:0.47452229299363063 91:0.07643312101910829 92:0.0999203821656051 93:0.11146496815286626 94:1.0 95:0.1031847133757962 97:0.08227176220806794 96:0.2802547770700637 98:1.0 101:0.1305732484076433 100:0.35509554140127386 99:0.4203821656050956 103:0.2786624203821656 102:1.0 104:1.0 105:1.0 106:1.0 107:1.0 108:0.21656050955414013 109:0.14012738853503184 110:1.0 111:1.0 112:0.2452229299363057 113:1.0 36:0.22929936305732485 114:0.11942675159235669 115:1.0 116:1.0 117:0.23885350318471338 118:0.12283894449499547 119:0.16560509554140126 120:0.10031847133757964 121:0.4968152866242038 122:0.23726114649681532 43:0.03715498938428875 123:0.19108280254777069 124:0.22292993630573252 125:1.0 126:0.25796178343949044 127:0.10828025477707007 128:1.0 129:0.11146496815286625 130:0.3439490445859873 131:1.0 132:0.21974522292993628 133:1.0 134:0.16878980891719747 135:0.8726114649681529 136:0.11464968152866242 137:0.06847133757961783 138:0.20479761660160262 139:1.0 140:0.7006369426751592 141:0.1602972399150743 142:0.04777070063694268 143:1.0 144:0.1305732484076433 145:0.08216560509554141 146:1.0 147:1.0 148:0.07643312101910829 149:0.4617834394904459 150:1.0 151:0.33917197452229303 152:0.4681528662420382 1:0.04936305732484077 5:0.23885350318471335 153:0.3280254777070064 154:0.694267515923567 155:0.9554140127388534 157:1.0 156:0.03343949044585988 158:0.22292993630573246 159:0.6411889596602973 160:0.33757961783439494 161:0.03264331210191083 163:0.23885350318471338 162:0.5828025477707006 165:1.0 164:0.6687898089171974 166:0.1624203821656051 167:1.0 168:0.0445859872611465 169:0.4649681528662421 170:0.11703821656050956 172:0.3248407643312102 171:0.05732484076433122 174:0.035350318471337586 173:0.09341825902335456 176:0.26433121019108274 175:0.04299363057324841 177:0.42834394904458606 178:1.0 181:0.7866242038216561 180:0.06847133757961783 179:0.11146496815286627 182:0.23566878980891717 183:1.0 184:0.9617834394904459 185:1.0 187:0.04219745222929936 186:0.15286624203821658 188:0.10509554140127389 189:0.2738853503184714 191:0.060509554140127396 190:1.0 192:1.0 195:1.0 194:0.05573248407643312 193:0.09872611464968153 198:1.0 197:0.356687898089172 196:1.0 200:0.14012738853503184 199:1.0 201:0.11783439490445859 203:0.22452229299363058 202:0.262208067940552 204:1.0 205:1.0 206:0.0748890175641768 207:0.10270700636942676 208:1.0 209:0.5350318471337581 210:0.3439490445859873 213:0.13198867657466384 212:0.27176220806794055 211:0.10934182590233546 214:1.0 215:0.9108280254777071 216:0.05298204979733642 217:0.267515923566879 218:0.45222929936305734 219:0.3163481953290871 220:0.5626326963906583 222:0.4968152866242039 221:1.0 223:1.0 225:0.03670801206838754 224:0.12420382165605097 227:0.13557779799818018 226:0.023354564755838643 228:0.30148619957537154 229:0.2537154989384289 230:1.0 233:0.3450106157112527 232:0.04989384288747347 231:0.14012738853503184 236:0.060509554140127396 235:0.3375796178343949 234:0.3343949044585987 237:0.11828935395814376 239:1.0 238:1.0 241:1.0 240:0.5605095541401275 242:1.0 
1.3030499044790794E-4 7.236991218102486E-5 1.1033354370558185E-4 433:0.05263157894736843 4:0.14586466165413534 434:0.618045112781955 435:0.19248120300751884 436:1.0 437:0.09323308270676693 438:0.04736842105263158 439:0.8721804511278196 440:0.08287385129490393 441:0.13834586466165413 442:1.0 445:0.1400375939849624 444:0.052631578947368425 443:1.0 446:0.07473684210526316 449:1.0 448:0.4511278195488722 447:0.11127819548872181 253:0.02466165413533835 451:0.6225563909774438 450:1.0 453:0.15037593984962405 452:0.11127819548872181 454:0.2105263157894737 17:0.02255639097744361 455:0.10902255639097745 456:1.0 258:0.029924812030075187 457:0.44812030075187975 458:0.10676691729323308 459:0.1473684210526316 460:0.10676691729323308 461:1.0 21:0.10939849624060151 82:0.025263157894736845 462:1.0 463:0.012674543501611171 464:1.0 465:0.11127819548872181 466:0.1443609022556391 467:0.07067669172932331 468:0.1323308270676692 469:1.0 470:0.11127819548872181 471:0.16390977443609023 472:1.0 473:0.05929108485499464 474:0.19548872180451127 475:0.03501611170784103 33:0.015467239527389902 100:0.16766917293233086 478:0.24862155388471183 477:0.15639097744360902 476:0.39097744360902253 479:0.2135338345864662 481:0.09323308270676693 480:0.0887218045112782 482:0.061654135338345864 484:0.06165413533834587 483:0.06165413533834587 485:0.12180451127819551 274:0.03783142065690542 486:0.1067669172932331 488:0.03157894736842106 487:0.057894736842105256 489:0.046616541353383466 490:1.0 491:1.0 492:0.07218045112781955 494:1.0 493:1.0 495:1.0 496:0.19398496240601504 497:0.061654135338345864 138:0.08595682755275286 498:0.06315789473684211 54:0.08195488721804511 499:1.0 500:0.3196562835660581 502:0.09022556390977444 501:1.0 503:0.07443609022556391 504:0.046616541353383466 505:1.0 506:1.0 507:0.24511278195488723 509:0.17142857142857149 508:1.0 510:0.18496240601503758 511:1.0 513:0.1924812030075188 512:0.15639097744360902 514:0.018270676691729323 515:1.0 517:0.12330827067669173 516:1.0 294:0.046616541353383466 518:0.036090225563909784 519:1.0 520:1.0 521:1.0 161:0.030827067669172935 522:1.0 15:0.07439005677458954 523:0.18195488721804515 524:1.0 525:0.9774436090225564 170:0.06447368421052631 526:0.5571428571428573 171:0.081203007518797 527:0.016541353383458645 528:0.5601503759398497 529:0.028571428571428577 530:0.14003759398496243 531:0.0330827067669173 532:1.0 533:0.4496240601503759 301:0.021353383458646617 302:0.03759398496240602 534:1.0 535:0.15639097744360902 536:0.43759398496240604 537:0.11729323308270678 538:0.07017543859649124 539:1.0 540:0.02983458646616542 541:0.06315789473684211 542:1.0 308:0.0251604621309371 543:1.0 544:1.0 545:0.031578947368421054 546:1.0 547:0.5157894736842106 206:0.1944862155388471 548:0.12180451127819551 549:1.0 550:0.6676691729323307 551:0.2481203007518797 552:0.17819548872180455 553:1.0 554:0.02180451127819549 555:0.4541353383458647 556:1.0 557:0.38897243107769425 558:1.0 559:1.0 560:0.0736842105263158 561:1.0 562:1.0 563:0.41203007518796997 564:0.04511278195488722 565:0.3497314715359828 325:0.09285714285714286 49:0.0661654135338346 566:0.27518796992481204 567:1.0 568:1.0 329:0.02456140350877193 569:0.22706766917293236 570:1.0 571:0.243609022556391 572:0.09022556390977443 573:0.01992481203007519 574:0.04511278195488722 236:0.057142857142857155 575:0.7578947368421054 576:0.25263157894736843 577:0.26315789473684215 578:0.2030075187969925 579:0.2676691729323309 580:0.026315789473684213 581:1.0 582:0.06954887218045112 583:0.38796992481203013 584:1.0 585:1.0 586:1.0 587:0.03127819548872181 588:0.5293233082706768 589:0.04511278195488722 590:1.0 591:0.11578947368421053 75:0.5428571428571428 354:0.3714285714285714 592:0.618045112781955 593:0.021804511278195493 16:0.02736842105263158 594:1.0 595:1.0 596:0.09022556390977444 597:1.0 598:0.05112781954887218 600:0.9774436090225562 599:0.028571428571428574 602:0.27744360902255644 601:1.0 604:0.05263157894736843 603:1.0 605:1.0 607:1.0 606:0.08270676691729324 608:1.0 609:0.3187969924812031 610:0.0406015037593985 611:0.2481203007518797 612:0.16004296455424277 613:0.07518796992481204 614:1.0 615:0.4161654135338347 370:0.23458646616541357 616:0.03759398496240602 112:0.11578947368421051 377:0.025563909774436094 38:0.17142857142857146 617:0.06165413533834587 618:0.12481203007518797 619:1.0 42:0.29345238095238096 620:0.40714285714285714 383:0.05800214822771214 43:0.05263157894736843 126:0.243609022556391 621:0.09924812030075189 623:0.09273182957393483 622:1.0 624:0.0661654135338346 626:0.06315789473684211 625:0.20601503759398498 627:0.046616541353383466 628:0.03458646616541354 629:0.42857142857142855 630:0.1443609022556391 137:0.016165413533834588 139:0.23609022556390977 631:0.36541353383458647 632:1.0 633:0.06107576633892424 634:1.0 151:0.05338345864661655 1:0.0349624060150376 152:0.02456140350877193 3:0.02781954887218045 636:0.760670908039329 635:0.01779448621553885 637:0.8240601503759399 638:0.1437277404036407 639:0.106265664160401 640:1.0 158:0.05263157894736842 642:0.24511278195488723 641:1.0 643:0.16842105263157897 646:0.019548872180451128 645:0.6406015037593985 644:1.0 647:1.0 648:0.052631578947368425 649:1.0 172:0.19172932330827067 652:1.0 651:1.0 650:0.29774436090225564 653:0.449624060150376 655:1.0 654:0.16199589883800408 180:0.09699248120300752 656:0.13759398496240605 657:1.0 410:0.09022556390977443 658:0.0330827067669173 659:1.0 660:1.0 662:0.2751879699248121 661:0.037218045112781956 194:0.026315789473684213 663:1.0 664:0.03551736484067312 667:1.0 666:0.412781954887218 665:0.5609022556390978 668:0.2180451127819549 670:0.0736842105263158 669:0.27819548872180455 30:0.049953831948291776 672:0.10526315789473685 671:1.0 673:0.07699248120300753 674:0.09473684210526316 676:0.05338345864661654 675:0.01024112004148302 677:1.0 678:0.07969924812030076 681:0.01904761904761905 680:1.0 679:0.10526315789473686 684:0.20150375939849624 683:0.10075187969924812 682:0.27518796992481204 686:0.25375939849624063 685:0.035338345864661655 687:0.06917293233082707 688:0.8721804511278196 690:0.19398496240601507 689:0.07969924812030077 691:0.33383458646616543 692:0.06265664160401002 693:0.22255639097744362 694:0.16842105263157897 695:0.5834586466165413 696:0.04611528822055139 697:1.0 698:0.06917293233082707 700:1.0 699:0.14837092731829574 226:0.0330827067669173 429:0.14075187969924816 701:0.029034123770965876 702:1.0 703:0.15338345864661657 
1.389239958625581E-4 7.587492822111381E-5 1.1842281944273464E-4 704:0.07482078853046595 705:0.04596774193548388 706:0.4852150537634409 60:0.11111111111111112 707:0.19892473118279572 708:0.023244781783681216 709:0.035618279569892476 245:0.021206690561529275 710:0.10483870967741937 711:0.34408602150537637 712:0.1747311827956989 713:0.2634408602150538 714:1.0 248:0.03629032258064517 249:0.13306451612903228 10:0.03225806451612904 716:0.33467741935483875 715:0.11841397849462366 440:0.037037037037037035 444:0.04704301075268818 448:0.30241935483870963 717:0.05017921146953406 718:0.16330645161290325 452:0.19892473118279572 719:0.8198924731182796 720:0.06881720430107527 454:0.09408602150537634 721:1.0 722:0.22580645161290325 723:0.24260752688172046 724:0.6666666666666669 725:0.05734767025089606 726:1.0 727:0.2963709677419355 728:0.13306451612903225 729:0.2862903225806452 730:0.532258064516129 731:1.0 732:1.0 733:1.0 734:0.18817204301075272 87:0.0439068100358423 735:0.06610459433040078 24:0.28225806451612906 89:0.07056451612903226 736:0.16666666666666669 739:0.5734767025089607 737:0.09946236559139786 738:1.0 740:1.0 466:0.043010752688172046 93:0.09408602150537636 95:0.0435483870967742 741:0.06586021505376345 742:0.0342741935483871 743:0.11827956989247314 744:0.20161290322580644 473:0.017665130568356377 33:0.027649769585253458 745:0.12768817204301075 746:0.7338709677419356 269:0.0920698924731183 748:0.02479091995221028 747:0.10013440860215056 749:1.0 108:0.0913978494623656 750:1.0 480:0.07930107526881722 36:0.021505376344086023 274:0.05917515563101303 751:0.27822580645161293 754:0.06586021505376345 753:0.0264336917562724 752:0.06518817204301076 755:0.7405913978494625 489:0.04166666666666667 756:0.025 757:0.05645161290322581 758:0.1317204301075269 760:0.2688172043010753 759:0.05510752688172043 761:0.04569892473118279 762:0.19758064516129034 763:0.6928763440860216 764:0.1431451612903226 765:0.08333333333333334 496:0.23118279569892475 766:0.08333333333333334 767:0.02374551971326165 768:0.15322580645161293 769:0.11038306451612905 771:0.12903225806451615 770:1.0 138:0.16326309399930627 498:0.05645161290322581 772:0.5564516129032259 773:0.05779569892473118 500:0.5714285714285715 774:0.039426523297491044 775:0.282258064516129 776:1.0 777:0.07661290322580647 778:0.18010752688172046 779:0.49731182795698925 512:0.06989247311827958 780:0.04973118279569893 781:0.0456989247311828 516:0.8938172043010753 782:1.0 12:0.09408602150537636 783:1.0 784:0.278225806451613 785:0.08781362007168458 786:1.0 787:0.036290322580645164 788:0.036290322580645164 789:0.3373655913978495 15:0.01662277814351547 298:0.09946236559139784 790:1.0 170:0.06586021505376345 176:0.11155913978494623 175:0.018145161290322585 529:0.025537634408602152 791:0.07683691756272401 792:0.07661290322580645 793:0.01478494623655914 794:0.995967741935484 795:0.19332894448101823 301:0.07634408602150539 796:1.0 186:0.03225806451612904 303:0.06451612903225808 797:0.25739247311827956 798:1.0 799:0.1317204301075269 540:0.053333333333333344 800:0.2762096774193548 308:0.05622213480199319 801:0.06881720430107527 802:1.0 201:0.04973118279569893 803:1.0 545:0.02822580645161291 804:1.0 805:0.04059139784946237 806:1.0 807:0.12634408602150538 206:0.04740957966764418 808:0.05685483870967742 211:0.046146953405017926 809:0.17338709677419356 810:0.060035842293906815 811:0.17473118279569894 812:0.4852150537634409 813:0.15770609318996417 41:0.04704301075268817 814:0.04183467741935484 815:0.835483870967742 816:0.7096774193548386 46:0.02772177419354839 817:0.5147849462365592 324:0.02517106549364614 818:1.0 819:1.0 820:0.17473118279569894 821:0.7096774193548389 822:0.029569892473118278 49:0.07885304659498209 823:0.0631720430107527 327:0.16129032258064516 328:0.14516129032258066 824:0.04946236559139785 825:0.15322580645161293 329:0.02195340501792115 225:0.09295415959252973 570:0.8938172043010753 826:1.0 827:0.5967741935483871 828:1.0 829:0.05510752688172044 232:0.06317204301075269 830:0.02352150537634409 335:0.17338709677419356 831:0.1975806451612903 832:0.020833333333333336 833:0.22177419354838712 578:0.18145161290322584 834:0.16868279569892472 580:0.023521505376344086 835:1.0 836:0.08064516129032259 837:1.0 838:0.027812241521918944 840:0.5376344086021505 839:0.15770609318996417 841:0.24462365591397847 67:0.04973118279569892 13:0.09946236559139784 343:0.03225806451612904 350:0.08467741935483872 842:0.04032258064516129 352:0.032930107526881726 75:0.025537634408602152 843:1.0 355:0.09408602150537636 844:0.014112903225806455 845:0.06955645161290323 847:0.13306451612903228 846:0.27284946236559143 16:0.04892473118279571 18:0.023521505376344086 599:0.07661290322580645 848:0.3440860215053764 81:0.06983403459560543 849:0.6559139784946236 850:0.13844086021505378 852:1.0 851:0.06373797396717601 853:1.0 25:0.02592165898617512 855:0.8830645161290324 854:0.16612903225806452 857:0.05040322580645162 856:0.03225806451612904 859:0.7822580645161291 858:1.0 860:1.0 862:1.0 861:0.1370967741935484 864:0.05443548387096775 863:0.19758064516129037 867:0.1317204301075269 866:0.05510752688172043 865:0.05510752688172044 869:0.282258064516129 868:1.0 870:0.12365591397849462 872:1.0 871:0.05510752688172044 372:0.16666666666666669 373:0.07258064516129033 874:0.1317204301075269 873:0.08467741935483872 377:0.045698924731182804 875:0.17741935483870966 617:0.05510752688172043 38:0.1532258064516129 876:0.05779569892473119 877:0.521505376344086 117:0.15120967741935482 878:0.04233870967741936 879:0.043010752688172046 42:0.4165826612903227 880:0.07325268817204302 881:1.0 43:0.015681003584229393 883:0.08512544802867383 882:1.0 885:1.0 884:1.0 886:0.1351766513056836 623:0.041442652329749106 887:1.0 387:0.0739247311827957 888:0.07661290322580647 889:1.0 130:0.07258064516129033 890:1.0 891:0.3790322580645161 629:0.1532258064516129 893:0.22177419354838715 892:1.0 630:0.021505376344086023 894:0.08467741935483872 139:0.2110215053763441 896:1.0 895:0.5342741935483871 897:0.06586021505376345 56:0.08400537634408603 148:0.03225806451612904 898:0.13306451612903225 899:0.4435483870967743 900:0.040322580645161296 901:0.11290322580645162 902:0.062163978494623656 1:0.03125 903:0.25612305854241335 904:1.0 3:0.14919354838709675 905:0.6505376344086022 8:0.08870967741935484 906:1.0 907:0.05779569892473119 908:1.0 909:0.06922043010752689 11:0.032795698924731186 910:0.07056451612903225 160:0.07123655913978495 645:0.07157258064516128 166:0.0685483870967742 911:1.0 168:0.037634408602150546 912:0.34408602150537637 913:1.0 172:0.054838709677419356 173:0.019713261648745522 914:0.5954301075268817 915:1.0 406:0.17338709677419356 654:0.01608830237862496 916:1.0 917:0.0631720430107527 919:0.03360215053763441 918:0.04032258064516129 920:0.05510752688172043 922:0.08333333333333334 921:0.22177419354838712 923:0.3991935483870967 408:0.06693548387096773 188:0.13306451612903225 924:0.4919354838709678 410:0.040322580645161296 189:0.11559139784946237 925:0.4254032258064517 926:1.0 661:0.03326612903225806 411:0.6370967741935486 927:1.0 929:1.0 928:1.0 194:0.02352150537634409 664:0.0634920634920635 930:0.07992831541218638 931:0.09274193548387097 932:0.7688172043010754 30:0.07016364836823241 934:0.08333333333333334 933:0.1747311827956989 935:1.0 936:1.0 937:0.1989247311827957 686:0.04536290322580646 938:0.08434139784946237 687:0.03091397849462366 941:1.0 940:0.14919354838709678 939:0.9946236559139785 943:0.16666666666666669 942:1.0 944:0.49731182795698925 945:0.3951612903225807 947:1.0 946:0.06720430107526883 948:1.0 951:1.0 422:0.08030913978494625 950:0.018145161290322582 949:0.12768817204301075 952:1.0 953:0.1478494623655914 217:0.30107526881720437 954:1.0 955:0.11962365591397851 425:0.03225806451612904 956:0.0793010752688172 957:1.0 958:0.08052297165200392 959:0.03225806451612904 960:0.09946236559139784 961:1.0 962:0.06989247311827956 964:0.41397849462365593 963:1.0 701:0.025951199338296115 966:1.0 965:0.24193548387096778 967:0.22580645161290328 240:0.23655913978494625 968:0.27822580645161293 
9.327068729647164E-4 5.239814131055722E-4 7.400204219014453E-4 593:0.48333333333333334 969:1.0 970:1.0 971:1.0 425:0.4000000000000001 327:0.7999999999999999 599:0.6333333333333333 50:1.0 206:0.7838383838383838 245:0.5259259259259259 918:1.0 972:0.7333333333333334 973:1.0 974:1.0 87:0.5444444444444444 10:0.8 12:0.5833333333333334 975:0.888888888888889 976:1.0 396:0.4929292929292929 308:0.2788617886178862 
5.136085627305367E-4 2.882914976671661E-4 4.0862626735716434E-4 977:1.0 336:0.6363636363636365 978:0.7575757575757577 2:0.6818181818181819 979:1.0 980:0.10984848484848486 635:0.1792929292929293 981:0.46603970741901785 156:0.07954545454545456 982:0.4681818181818182 12:0.928030303030303 68:0.9318181818181818 14:0.15151515151515152 983:0.5757575757575758 404:0.8484848484848485 446:0.053787878787878794 788:0.20454545454545456 645:0.13446969696969696 15:0.09369202226345084 984:0.7272727272727273 720:0.3878787878787878 172:0.15454545454545454 17:0.2272727272727273 19:0.25 985:0.6742424242424243 986:1.0 20:0.3977272727272727 534:0.8396464646464646 24:0.3977272727272727 188:1.0 987:0.3863636363636364 988:1.0 25:0.1461038961038961 989:0.13446969696969696 990:1.0 991:0.3106060606060606 30:0.03595162147793727 471:0.8257575757575757 99:1.0 676:0.2689393939393939 992:0.3522727272727273 993:0.21212121212121213 206:0.08907254361799816 994:1.0 35:0.662878787878788 274:0.09529505582137161 41:0.662878787878788 815:0.3363636363636364 946:0.1893939393939394 996:1.0 995:0.3106060606060606 998:1.0 997:1.0 217:0.42424242424242425 999:0.34090909090909094 48:0.5147058823529412 50:0.11363636363636365 764:0.8068181818181819 1000:1.0 628:0.17424242424242425 630:0.12121212121212122 1001:0.13257575757575757 54:0.4128787878787879 1002:0.22727272727272732 701:0.14627039627039626 56:0.0946969696969697 1003:0.23674242424242425 57:0.6893939393939394 
5.036995086583191E-4 2.729626016849725E-4 4.017130780529953E-4 1:0.32291666666666663 1004:0.625 593:0.6041666666666666 1005:1.0 564:0.4166666666666666 281:1.0 972:0.9166666666666666 1006:1.0 1007:1.0 630:1.0 1008:1.0 1009:1.0 1011:1.0 1010:1.0 645:0.7395833333333333 148:1.0 856:1.0 30:0.19773391812865496 172:0.425 
5.005005008563892E-4 2.894435761023515E-4 4.113496799135806E-4 1012:1.0 1013:1.0 33:0.935064935064935 635:0.8964646464646465 8:1.0 1014:1.0 972:0.3333333333333333 1015:0.39393939393939387 780:0.5606060606060606 781:0.5151515151515151 1016:1.0 402:1.0 1017:0.7878787878787878 377:0.2575757575757576 273:0.6363636363636365 1018:1.0 1019:1.0 1020:0.8030303030303031 172:0.07727272727272727 696:0.9292929292929294 593:0.21969696969696972 1021:1.0 621:1.0 19:0.16666666666666669 1022:0.787878787878788 1024:0.5181818181818182 1023:1.0 49:0.22222222222222224 1025:1.0 301:0.8606060606060606 1026:1.0 1027:1.0 1028:0.6565656565656565 1029:1.0 1030:1.0 1032:1.0 1031:1.0 30:0.14380648591174908 
5.960722037956005E-4 3.3430069577971585E-4 4.718048804833432E-4 152:0.13172043010752688 2:0.7258064516129032 1033:0.31451612903225806 981:0.24805339265850945 1034:0.11827956989247311 982:0.8306451612903225 12:0.7056451612903226 1035:1.0 983:0.6129032258064516 1036:1.0 15:0.2992100065832785 1037:1.0 1038:0.16532258064516128 406:0.17338709677419356 1040:1.0 1039:1.0 20:0.564516129032258 795:0.434990125082291 301:0.11451612903225807 1041:0.33870967741935487 24:0.4233870967741935 1042:1.0 606:0.8870967741935484 25:0.9331797235023043 308:0.06746656176239181 741:0.7903225806451615 1043:1.0 1044:0.846774193548387 206:0.18963831867057673 686:0.5443548387096774 685:0.3790322580645162 35:0.7056451612903226 943:1.0 274:0.1521646859083192 1045:0.32963709677419356 41:0.7056451612903226 756:0.3 42:0.1851478494623656 48:0.04981024667931689 1046:0.7741935483870969 49:0.11827956989247312 1047:1.0 765:1.0 958:0.4831378299120234 1048:0.219758064516129 630:0.12903225806451613 138:0.1728668054110302 54:0.8790322580645161 1049:0.2540322580645161 500:0.28571428571428575 1050:0.4919354838709677 57:0.7338709677419355 1051:1.0 
5.646112848808566E-4 3.217328076111459E-4 4.598883494175338E-4 1004:0.2542372881355932 1052:1.0 1053:1.0 1054:0.15819209039548024 245:0.2674199623352166 972:0.3728813559322034 1055:0.7353324641460236 808:0.7169491525423728 839:0.4971751412429379 480:1.0 1056:0.5028248587570622 12:0.2966101694915254 910:0.8898305084745762 295:1.0 274:0.42640499553969674 444:0.5932203389830508 488:0.35593220338983056 689:0.8983050847457628 753:1.0 815:0.752542372881356 1057:1.0 489:0.5254237288135593 1058:0.13220338983050847 170:0.1038135593220339 174:0.18813559322033901 217:0.4745762711864407 1059:1.0 623:0.5225988700564971 406:0.364406779661017 727:0.4152542372881356 917:0.7966101694915254 956:1.0 1060:0.3728813559322034 795:0.30473884469041856 188:0.559322033898305 138:0.12110442864953526 498:0.711864406779661 410:0.5084745762711864 463:1.0 56:0.211864406779661 308:0.14179412980570485 854:0.34915254237288135 1061:1.0 263:0.635593220338983 1062:1.0 
2.423034828667498E-4 1.461873259372123E-4 1.9656093089282604E-4 2:0.2109375 1125:1.0 711:1.0 1126:0.1328125 1127:1.0 1128:1.0 68:0.48046874999999994 440:0.1076388888888889 1129:1.0 720:1.0 1130:1.0 1131:0.13671875 258:0.077734375 1132:0.8203125 1133:1.0 20:0.6152343749999999 1134:0.34375 1135:1.0 851:0.18523848684210525 24:0.41015625 25:0.07533482142857144 93:0.2734375 1136:0.20507812499999997 1138:1.0 1137:0.84375 1140:1.0 1139:0.20182291666666666 474:0.5078125 1141:0.171875 1142:1.0 1080:0.9804687499999999 1143:1.0 35:0.68359375 1084:0.1953125 38:0.111328125 1056:0.11588541666666669 618:0.32421875 975:0.10416666666666666 274:0.02456825657894737 487:0.15039062499999997 1144:1.0 879:1.0 1145:1.0 42:0.04484049479166667 883:0.49479166666666663 1146:0.48046875 1147:0.3567708333333333 623:0.12044270833333331 1148:1.0 767:0.06901041666666667 1149:1.0 629:0.4453125 1150:0.49218750000000006 1091:0.2154447115384615 630:0.03125 138:0.16746471774193547 1151:0.13020833333333334 500:0.96875 148:0.140625 151:0.27734375 1152:0.50390625 977:0.515625 1153:1.0 12:0.13671875 1154:0.9570312500000002 1155:0.125 1156:1.0 645:0.3466796875 1157:0.7656250000000001 1158:0.47656249999999994 1159:1.0 1058:0.030468750000000003 912:1.0 1160:0.138671875 170:0.287109375 406:0.41992187500000006 1161:1.0 1162:0.10546875000000001 917:0.18359375000000003 1163:0.3359375 188:0.38671875000000006 1164:1.0 1165:1.0 1166:1.0 30:0.018537554824561403 545:0.08203125 673:1.0 206:0.045928030303030304 1167:1.0 1168:0.12187500000000001 1169:1.0 1170:0.28125 212:1.0 1171:0.20703125000000003 943:0.24218750000000003 1172:1.0 1173:0.19921875 813:0.4583333333333333 1174:1.0 1175:1.0 46:0.40283203125 1176:0.2734375 955:0.34765625 1177:0.09765625 1178:1.0 1179:1.0 699:0.38541666666666663 1180:1.0 1181:0.19921875 1182:0.19921875 432:0.1640625 1184:1.0 1183:1.0 1185:1.0 578:0.52734375 57:0.284375 1186:1.0 
2.823791932955101E-4 1.5560026611997216E-4 2.2322964946210958E-4 1063:0.601593625498008 834:1.0 1064:1.0 1065:1.0 1066:1.0 713:0.39043824701195223 65:0.3545816733067729 438:0.1254980079681275 1067:0.902390438247012 1068:0.21912350597609562 344:1.0 1069:0.29482071713147406 1070:0.21115537848605578 1071:1.0 1072:1.0 1073:0.034860557768924307 79:0.13944223107569723 82:0.06693227091633466 81:0.7451931404815522 85:0.13944223107569723 90:0.4940239043824702 1074:0.18326693227091634 92:1.0 1075:0.7171314741035856 1076:1.0 1078:1.0 1077:1.0 1079:0.23392145702902672 1081:0.6454183266932272 1080:1.0 1082:1.0 1083:1.0 35:0.06972111553784861 1084:0.099601593625498 36:0.03187250996015936 874:0.1952191235059761 1085:0.6454183266932272 1056:0.11819389110225764 117:0.149402390438247 1086:0.21115537848605576 878:0.250996015936255 1087:1.0 43:0.04648074369189907 759:0.16334661354581673 1088:0.8087649402390439 387:0.43824701195219123 129:0.1394422310756972 1089:0.31474103585657376 1006:0.04780876494023905 1090:0.23904382470119523 1091:0.07324547961998161 138:0.05693355609818789 630:0.03187250996015936 1092:0.33067729083665337 1093:1.0 1094:1.0 1095:1.0 1096:0.17529880478087648 151:0.14143426294820716 152:0.0650730411686587 1:0.03087649402390438 1097:1.0 1098:1.0 153:0.4103585657370518 289:0.1553784860557769 290:0.2521343198634035 1099:0.5776892430278885 1100:0.3824701195219124 158:0.1394422310756972 1101:0.39442231075697204 160:0.844621513944223 403:0.29880478087649404 1102:0.20318725099601595 1103:1.0 789:1.0 1104:1.0 1105:1.0 170:0.09760956175298806 172:0.46733067729083666 1106:0.4840637450199203 179:0.13944223107569723 1107:1.0 918:0.17928286852589642 301:0.05657370517928287 1108:0.16733067729083664 1109:0.05577689243027889 1110:1.0 1111:0.1394422310756972 194:0.5577689243027888 30:0.2457887747256588 202:0.3280212483399734 545:0.08366533864541834 1112:0.21713147410358563 1113:1.0 206:0.28105758783049617 317:0.149402390438247 938:1.0 211:0.2735723771580345 1114:1.0 1115:0.350597609561753 41:0.0697211155378486 946:0.09960159362549802 1116:1.0 950:0.017928286852589643 1117:0.6454183266932271 995:0.16334661354581673 45:0.24701195219123506 217:0.11155378486055777 1118:0.5657370517928287 1119:0.39043824701195223 1120:1.0 430:0.32327831531018786 1122:0.3944223107569721 1121:1.0 701:1.0 1061:0.23505976095617528 234:0.41832669322709154 1124:1.0 1123:1.0 
1.668183027853457E-4 9.748546110546527E-5 1.3609423517054416E-4 1187:0.7817622950819673 1188:0.25 249:0.8114754098360656 1189:1.0 1190:0.8729508196721312 1191:1.0 258:0.08155737704918033 458:0.29098360655737704 1192:1.0 728:0.06762295081967214 1193:0.2848360655737705 79:0.07172131147540985 1194:1.0 89:0.07172131147540985 735:0.9070417287630402 1195:1.0 263:0.07684426229508197 1197:0.2889344262295082 1196:1.0 743:0.36065573770491804 1198:1.0 1200:0.3504098360655738 1199:0.6065573770491803 1201:0.7527322404371586 269:0.42110655737704916 271:0.2909836065573771 1202:0.9713114754098362 1203:0.918032786885246 272:0.06796448087431695 1204:1.0 274:0.21910051768766178 1205:1.0 1206:0.07120901639344261 1207:0.1004098360655738 1208:0.22848360655737704 1209:0.9959016393442621 123:0.3073770491803278 280:0.2827868852459016 279:0.18903688524590162 281:0.04918032786885247 283:0.07223360655737705 129:0.07172131147540985 1210:1.0 766:0.6352459016393442 768:0.11680327868852461 134:0.10860655737704919 136:0.11065573770491804 1211:1.0 138:0.043925171866737174 1213:0.04918032786885247 1212:0.8668032786885247 1214:0.1680327868852459 1215:0.2008196721311476 775:0.2151639344262295 1216:0.22745901639344263 287:0.0973360655737705 778:0.5491803278688525 1217:0.930327868852459 288:0.5778688524590165 1218:0.375 1219:0.18954918032786885 294:0.3176229508196721 1220:0.2561475409836066 1221:0.14754098360655737 1223:1.0 1222:1.0 170:0.10040983606557377 1224:0.9139344262295083 174:0.13647540983606557 301:0.029098360655737707 1225:1.0 1226:1.0 1227:0.2319672131147541 202:0.1687158469945355 1228:0.4897540983606558 1229:1.0 1230:0.1413934426229508 1231:0.2889344262295082 1232:0.03629976580796253 206:0.12046696472925982 1233:0.06608606557377049 1234:0.7561475409836066 1235:0.3483606557377049 317:0.23053278688524587 1237:0.4979508196721312 1236:0.29713114754098363 1238:0.5081967213114755 1240:1.0 1239:1.0 1241:0.3688524590163935 1243:0.819672131147541 321:0.30532786885245905 1242:1.0 322:0.17213114754098363 1244:1.0 1245:0.10109289617486339 1246:1.0 1247:0.9016393442622951 325:0.12653688524590165 1248:0.2028688524590164 1249:0.1598360655737705 327:0.09836065573770493 328:0.11065573770491803 1250:0.1434426229508197 1251:1.0 229:0.7346311475409836 1252:0.764344262295082 232:0.35314207650273227 336:0.1721311475409836 58:0.12704918032786888 1253:1.0 64:0.04849726775956284 65:0.1823770491803279 345:0.5778688524590164 1254:1.0 350:0.2581967213114754 351:0.29098360655737704 1255:1.0 1256:0.10655737704918031 1257:0.5061475409836066 591:0.15778688524590165 1258:1.0 1259:0.33196721311475413 599:0.0778688524590164 81:0.04258731290092659 83:0.22131147540983612 1260:0.35860655737704916 849:1.0 91:0.049180327868852465 1261:0.06147540983606558 1262:0.20081967213114757 1263:1.0 97:0.42349726775956287 367:0.09836065573770494 1264:1.0 369:0.5102459016393442 1265:1.0 103:0.7172131147540984 1266:1.0 1267:0.30532786885245905 1268:1.0 617:0.08401639344262295 1269:0.14549180327868855 878:0.06454918032786885 117:0.23053278688524587 1270:0.45081967213114754 1271:0.7581967213114753 1272:0.08811475409836067 122:0.30532786885245905 1273:1.0 1274:0.015132408575031528 383:0.2687353629976581 43:0.1434426229508197 883:0.12978142076502733 1275:1.0 127:0.06967213114754099 1276:1.0 1277:0.6639344262295083 1278:0.2807377049180328 1090:0.12295081967213117 630:0.01639344262295082 1091:0.037673392181588904 396:1.0 397:0.30532786885245905 151:0.14549180327868855 1279:0.8196721311475409 1280:1.0 5:0.4610655737704918 1281:1.0 399:0.2909836065573771 1282:1.0 1283:1.0 1284:0.2028688524590164 1285:0.09016393442622951 1286:0.5819672131147542 158:0.07172131147540983 1287:0.18954918032786885 1288:0.1997950819672131 1289:1.0 172:0.03135245901639344 1290:0.05609631147540984 406:0.08811475409836067 179:0.07172131147540985 1162:0.05532786885245903 1291:0.18852459016393444 1292:0.015027322404371586 1293:1.0 1294:0.01707650273224044 408:0.10204918032786886 409:0.9836065573770493 1295:1.0 1296:0.29918032786885246 1297:0.15215163934426226 1298:1.0 30:0.10697080816796088 1299:0.01668618266978923 1300:1.0 414:0.2655737704918033 1301:1.0 1302:1.0 1303:1.0 1304:1.0 1305:1.0 212:0.17486338797814208 1306:0.5061475409836066 1307:0.18032786885245902 1308:0.2827868852459016 422:0.24487704918032788 423:1.0 424:0.2704918032786885 1309:0.0778688524590164 1310:0.01588114754098361 425:0.024590163934426233 427:0.0901639344262295 1311:1.0 1312:1.0 1313:1.0 227:0.1744730679156909 1314:1.0 1315:1.0 1316:0.22336065573770492 701:0.15825977301387137 1317:0.3934426229508198 1318:0.18852459016393447 967:0.34426229508196726 1062:0.1209016393442623 
2.174970863129265E-4 1.1985225466811414E-4 1.711412196451253E-4 978:0.3344481605351171 336:0.2809364548494983 1336:0.4866220735785953 1337:1.0 1338:1.0 248:0.09030100334448161 446:0.04749163879598662 1339:1.0 1340:1.0 447:0.12374581939799331 1341:1.0 454:0.46822742474916385 1342:0.24080267558528426 17:0.3511705685618729 1131:0.11705685618729098 18:0.23411371237458192 1343:1.0 1344:0.431438127090301 1345:0.05908584169453735 81:0.4865493674567399 82:0.11237458193979932 1346:1.0 1347:0.4949832775919732 1074:0.15384615384615385 1348:1.0 1349:0.16053511705685622 466:0.10702341137123746 1350:1.0 1352:0.5217391304347826 263:0.1254180602006689 1351:1.0 1353:1.0 1354:0.09085841694537347 96:0.294314381270903 473:0.1758241758241758 744:0.2508361204013378 1355:0.8294314381270904 31:0.19866220735785955 1356:0.07395020438498699 1357:1.0 1358:1.0 1359:0.4938684503901895 35:0.05852842809364549 1084:0.08361204013377925 1360:1.0 374:0.7993311036789298 1362:0.6789297658862876 1361:1.0 1363:1.0 1364:0.3545150501672241 36:0.05351170568561873 1365:1.0 377:0.0568561872909699 1366:1.0 274:0.06310508713254709 1367:0.24414715719063543 1368:1.0 39:0.12404986318029795 1369:1.0 117:0.25083612040133774 122:0.2491638795986622 1207:0.1638795986622074 1370:0.32107023411371244 43:0.07803790412486064 1371:0.882943143812709 127:0.11371237458193979 1372:1.0 1373:1.0 767:0.059085841694537344 1374:1.0 1375:0.13712374581939799 1376:1.0 137:0.03595317725752508 138:0.23896860502751102 630:0.2408026755852843 1377:0.11705685618729098 773:0.431438127090301 500:0.2369804108934544 56:0.04180602006688963 1378:0.16053511705685616 1216:0.3712374581939799 151:0.47491638795986624 1379:0.2508361204013378 287:0.1588628762541806 1:0.025919732441471572 152:0.4916387959866221 1380:1.0 153:0.3444816053511706 1381:1.0 1382:1.0 1284:0.16555183946488294 1383:1.0 290:0.21165790731008122 1384:0.24749163879598662 1219:0.9280936454849499 1100:0.3210702341137124 1385:1.0 11:0.12240802675585284 1386:1.0 1220:0.4180602006688963 160:0.17725752508361206 1387:0.13712374581939799 403:0.2508361204013378 404:0.37458193979933113 1389:1.0 1388:0.18490205446727187 170:0.1024247491638796 172:0.10234113712374583 650:0.3311036789297659 653:1.0 1390:0.07803790412486065 182:0.1237458193979933 1391:0.07357859531772575 533:1.0 301:0.04749163879598662 1392:1.0 1393:0.2474916387959866 1395:1.0 1394:1.0 1396:1.0 1397:0.3327759197324414 1297:0.16555183946488292 30:0.17458780731091947 672:0.23411371237458195 1398:0.1471571906354515 1399:0.8294314381270904 1401:1.0 1400:0.6229096989966556 1402:1.0 1233:0.10785953177257525 1403:0.431438127090301 686:0.112876254180602 1404:1.0 210:0.18060200668896323 554:0.09698996655518395 1408:0.3177257525083612 1407:0.4280936454849499 1406:1.0 1405:1.0 1409:1.0 41:0.11705685618729096 946:0.08361204013377926 1411:1.0 1410:1.0 1412:0.2023411371237458 1413:0.5284280936454849 560:0.08193979933110368 45:0.10367892976588629 46:0.13795986622073578 1248:0.33110367892976583 326:0.31772575250836127 428:0.27424749163879597 1414:0.2525083612040134 1415:1.0 226:0.6131549609810479 227:0.07118967988533206 1416:1.0 701:0.1291484435297144 1417:1.0 1418:0.8294314381270904 967:0.28093645484949836 
4.5622442741567444E-4 2.4789577962426747E-4 3.697509120758932E-4 1004:0.27777777777777773 1319:1.0 866:0.7592592592592592 1320:1.0 108:0.6296296296296295 1321:1.0 972:0.4074074074074074 210:1.0 1322:1.0 438:0.5833333333333334 1323:1.0 754:0.9074074074074074 645:0.32870370370370366 1324:0.9444444444444444 75:0.35185185185185186 171:1.0 172:0.09444444444444444 1325:1.0 1326:0.4629629629629629 127:0.6296296296296297 406:0.39814814814814814 1327:0.7777777777777777 654:0.22166105499438832 1328:1.0 50:0.41666666666666663 1329:0.9629629629629629 51:0.5694444444444443 1330:0.21759259259259256 1331:1.0 188:0.6111111111111112 1332:1.0 1333:1.0 897:0.9074074074074074 1335:1.0 1334:1.0 610:1.0 545:0.3888888888888889 57:0.337037037037037 
1.517606032945316E-4 8.525129652226958E-5 1.2138417203355826E-4 704:0.5560488346281909 1419:0.15316315205327413 1420:1.0 708:0.03838871841744467 1421:1.0 1422:0.05133185349611542 1423:1.0 1424:0.7291897891231965 438:0.03496115427302997 1425:0.10876803551609325 249:0.32963374028856823 1067:0.08379578246392896 715:0.09778024417314095 716:0.5527192008879024 1426:1.0 446:0.07092119866814652 1427:0.6725860155382908 452:0.7391786903440623 719:0.47391786903440625 1428:1.0 1429:0.10155382907880134 1430:0.33296337402885684 1431:0.9885312615612283 1432:0.27169811320754716 722:0.18645948945615984 1433:1.0 723:0.8013318534961155 458:0.07880133185349611 728:0.10987791342952273 1434:1.0 1435:0.0388457269700333 82:0.009322974472807992 735:0.05458581374230653 89:0.0388457269700333 736:0.13762486126526083 1436:0.10987791342952274 989:0.019700332963374027 1437:0.4927857935627081 1438:0.9833518312985571 1439:1.0 95:0.5394006659267482 742:0.02830188679245283 744:0.24972253052164256 1198:0.5416204217536071 33:0.011415887109560804 1440:0.23640399556048836 1441:1.0 1442:0.5682574916759157 108:0.11320754716981131 1443:0.390677025527192 1444:0.2885682574916759 1084:0.027746947835738067 1445:0.41398446170921194 1203:0.12430632630410657 975:0.029596744358120607 1446:0.23640399556048836 272:0.03681095079541251 274:0.06980547929201474 39:0.0411663807890223 488:0.023307436182019983 1447:0.24972253052164262 752:0.43063263041065486 1144:0.28412874583795783 1448:0.1076581576026637 123:0.09988901220865705 1450:1.0 1449:0.35960044395116536 1451:0.1564927857935627 760:0.6659267480577136 970:0.06659267480577137 1453:0.3795782463928968 1452:1.0 1454:1.0 762:0.08157602663706993 1455:0.10987791342952276 764:0.05910099889012209 765:0.06881243063263041 1456:1.0 769:0.27344617092119866 1457:0.0632630410654828 136:0.09988901220865705 1458:0.19533851276359598 498:0.3729189789123197 138:0.459954888833196 1459:0.16936736958934517 1460:0.15316315205327416 1461:1.0 1462:1.0 286:0.052719200887902336 1463:0.08546059933407324 1464:1.0 1465:0.11431742508324086 1466:0.11986681465038847 1467:0.14317425083240845 1468:0.16204217536071033 289:0.043285238623751394 1469:0.3285238623751387 1470:1.0 156:0.01165371809100999 290:0.2107182495639765 1100:0.1065482796892342 1471:0.17980022197558268 294:0.03440621531631521 12:0.05826859045504995 1472:0.14206437291897892 1473:0.12097669256381798 1474:0.08990011098779134 789:0.5571587125416204 1475:0.4106548279689234 15:0.04117873564520148 1476:0.10987791342952276 1158:0.06770255271920088 298:0.04106548279689234 1477:0.08435072142064373 1478:0.12097669256381798 1058:0.025971143174250835 170:0.03399001109877913 171:0.01997780244173141 174:0.07391786903440623 527:0.024417314095449498 175:0.11986681465038845 1479:0.146503884572697 791:0.06344802071772104 795:0.31928242995311334 1480:1.0 301:0.04728079911209766 302:0.11098779134295228 1481:0.057713651498335176 1482:1.0 1394:0.3318534961154273 1108:0.04661487236403996 1483:0.022567517573066964 800:0.2280799112097669 308:0.1949866002544598 1484:0.08213096559378469 1485:0.24417314095449497 201:0.04106548279689234 802:0.1376248612652608 1486:0.439511653718091 1487:0.15011098779134294 1399:0.5504994450610433 547:0.7613762486126526 1232:0.019660694466465834 1488:0.048834628190899 1489:1.0 206:0.05219789459523089 1490:0.265260821309656 1491:0.30632630410654826 808:0.14084350721420644 317:0.0416204217536071 211:0.1905290418054014 1492:0.3795782463928968 1493:1.0 1494:0.03806881243063263 319:0.11653718091009987 1495:1.0 1496:0.3329633740288568 41:0.0388457269700333 1497:0.44173140954495005 1498:1.0 815:0.49278579356270813 1241:0.19977802441731413 321:0.16537180910099888 1499:0.10284868664446908 322:0.01165371809100999 1500:0.22641509433962265 1501:1.0 817:0.42508324084350724 1502:0.6659267480577137 1119:0.10876803551609324 1503:0.29411764705882354 565:0.011732995084826383 822:0.048834628190898996 326:0.10543840177580467 1504:1.0 327:0.13318534961154274 823:0.1564927857935627 328:0.05993340732519422 1505:1.0 1506:0.05327413984461709 225:0.012792803317950817 1507:1.0 229:0.66315205327414 1508:0.021087680355160933 1509:0.36459489456159827 1510:1.0 1511:1.0 232:0.08694043655197928 335:0.09544950055493896 236:0.04217536071032187 1512:0.8224195338512764 1184:0.28412874583795783 1513:1.0 1514:1.0 833:0.18312985571587126 1123:0.0928597854236034 1516:0.0388457269700333 1515:0.11653718091009989 1517:0.0887902330743618 838:0.11482967642790062 1518:0.0887902330743618 839:0.2604513503514614 1519:0.6659267480577137 1520:1.0 67:0.08213096559378469 1521:0.3129855715871254 347:0.08102108768035518 1522:0.2001479837217906 352:0.013596004439511656 1523:0.08403361344537814 355:0.11653718091009989 847:0.10987791342952276 16:0.020199778024417313 1525:1.0 1524:1.0 1259:0.17980022197558268 1526:0.24713281539030707 81:0.034599237562129036 1527:1.0 850:0.11431742508324085 1528:0.2996670366259711 851:1.0 1529:0.2741398446170921 1531:1.0 1530:1.0 1532:0.3795782463928968 1349:0.0532741398446171 1533:0.12153163152053274 854:0.11431742508324086 1140:0.8523862375138734 367:0.02663706992230855 1534:0.14983351831298555 863:0.16315205327413984 864:0.04495005549389568 867:0.10876803551609324 869:0.15538290788013318 1535:1.0 870:0.30632630410654826 372:0.13762486126526083 616:0.05549389567147614 374:0.26526082130965595 1536:0.20477247502774695 618:0.18423973362930077 878:0.20976692563817978 117:0.12486126526082128 1538:0.5504994450610433 1537:0.05438401775804662 42:0.30577136514983355 1539:1.0 43:0.051794302626711065 383:0.008561915332170605 1541:1.0 1540:0.12153163152053273 127:0.07547169811320756 1542:0.014058453570107288 1543:0.15760266370699222 387:0.061043285238623755 1544:0.4694783573806881 1089:0.08768035516093231 1545:0.17314095449500555 629:0.0632630410654828 893:0.9156492785793563 1048:0.030244173140954494 630:0.008879023307436182 139:0.17425083240843506 396:0.04923822015941882 56:0.041620421753607105 1546:1.0 148:0.026637069922308545 1547:0.26970033296337403 1550:1.0 899:0.732519422863485 1549:0.6004439511653719 1548:0.027746947835738067 1551:0.6659267480577137 151:0.19700332963374032 1:0.008601553829078802 152:0.01812800591934887 902:0.15399556048834626 1552:1.0 3:0.04106548279689233 636:0.03508921710919491 1553:0.016278209396966337 905:0.2685904550499445 1554:0.2297447280799112 8:0.0732519422863485 1285:0.048834628190899 1555:0.4306326304106548 909:0.05715871254162042 982:0.0685904550499445 1556:0.293007769145394 1557:0.20310765815760268 643:0.12430632630410657 1558:0.7084720680725121 1560:1.0 1559:1.0 1561:0.44173140954495005 1562:1.0 1564:1.0 1563:1.0 1565:1.0 172:0.022641509433962266 1290:0.030382907880133186 1566:0.04572697003329634 1567:0.26526082130965595 654:0.03985470689133286 1568:0.4916759156492786 919:0.027746947835738067 1569:0.49167591564927854 408:0.11054384017758045 1295:0.13540510543840178 409:0.1065482796892342 1570:0.3152053274139845 410:0.13318534961154274 189:0.04772475027746949 1571:1.0 1572:0.13485016648168702 664:0.02621425928862111 1297:0.08240843507214206 1574:0.265260821309656 1573:1.0 931:0.025527192008879027 30:0.06320462643846018 414:0.03596004439511654 1575:0.10876803551609325 1576:0.01687014428412875 1577:1.0 992:0.03440621531631521 1579:1.0 1578:0.24639289678135404 1580:0.1709211986681465 1402:0.2212356640769515 683:0.07436182019977802 1581:0.09156492785793563 1583:0.18941916389197186 1582:1.0 1585:0.48890122086570476 1584:0.14428412874583796 1307:0.293007769145394 689:0.05882352941176471 1587:0.1076581576026637 945:0.16315205327413984 1586:0.07991120976692563 946:0.0832408435072142 1588:0.4095449500554939 422:0.13263041065482797 1589:0.9778024417314096 45:0.06881243063263041 953:0.2238253792082871 1590:1.0 1592:0.04661487236403995 1591:0.30022197558268593 1593:0.04661487236403996 427:0.048834628190898996 222:0.17314095449500558 1594:0.07491675915649279 1595:1.0 958:0.0664917768136414 226:0.008139104698483167 1596:1.0 960:0.04106548279689234 1598:1.0 1597:0.023307436182019976 1122:0.10987791342952274 1599:0.8224195338512764 1600:0.18312985571587126 1601:0.1076581576026637 1602:0.057713651498335176 967:0.09322974472807992 240:0.390677025527192 
4.6215634646393683E-4 2.4731044582293796E-4 3.618678952880853E-4 1004:0.29411764705882354 1603:1.0 1604:0.4705882352941177 1605:1.0 1607:1.0 1606:1.0 972:0.4313725490196078 1608:1.0 1609:1.0 377:1.0 1610:1.0 1102:1.0 1173:1.0 1611:1.0 1612:1.0 1206:0.6813725490196078 1613:0.303921568627451 1614:0.5294117647058824 1615:1.0 172:1.0 1616:1.0 324:0.18360071301247768 761:0.33333333333333326 727:0.48039215686274506 1617:1.0 1618:1.0 1619:0.6666666666666666 735:0.964349376114082 1181:1.0 1620:1.0 138:0.280202403542062 1297:0.48529411764705876 308:0.1640363462458154 366:0.30392156862745096 1621:0.9019607843137256 
3.3973471439245156E-4 2.027764206776013E-4 2.837387893544593E-4 1622:1.0 435:1.0 972:0.171875 289:0.3046875 248:0.21093750000000003 1623:1.0 11:0.09531250000000001 1624:0.8281250000000001 1625:0.640625 1472:1.0 646:0.1015625 1626:1.0 1058:0.060937500000000006 170:0.0478515625 16:0.1421875 174:0.08671875 1627:1.0 406:0.16796875000000003 725:1.0 18:0.13671875 654:0.09351325757575757 1628:1.0 1629:0.9765624999999999 301:0.221875 1330:0.091796875 22:0.5625000000000001 1630:1.0 1631:0.671875 1632:1.0 799:0.38281250000000006 93:0.2734375 1633:1.0 30:0.25952576754385964 1634:0.41406250000000006 1004:0.234375 1320:0.21093750000000003 1635:1.0 1636:1.0 206:0.09185606060606061 1637:1.0 1638:1.0 36:0.0625 484:0.3203125 1407:1.0 1639:1.0 274:0.14740953947368424 39:0.4346590909090909 1641:0.28125000000000006 1640:1.0 119:0.203125 1643:0.13541666666666666 1642:1.0 1645:0.3203125 560:0.19140625 1644:0.83203125 46:0.1611328125 1647:1.0 1646:1.0 1648:1.0 1146:0.32031249999999994 955:0.6953125 1023:0.515625 1649:1.0 1455:0.7734375 956:0.4609375 1650:0.48046874999999994 824:0.14375 329:0.12760416666666666 1506:0.1875 1651:1.0 1653:1.0 1652:1.0 974:0.703125 226:0.4010416666666667 429:0.4875000000000001 1654:0.3203125 1655:1.0 144:0.640625 1656:1.0 701:0.7542067307692307 56:0.5859375 1657:1.0 
4.475136526546862E-4 2.5254191396990107E-4 3.405300405265882E-4 1004:0.4285714285714286 1664:1.0 1176:1.0 1663:1.0 406:0.6142857142857143 388:1.0 972:0.6285714285714286 1665:0.18095238095238095 1260:1.0 604:1.0 1006:0.3428571428571429 85:1.0 1666:1.0 1667:1.0 1658:1.0 1377:1.0 1659:1.0 1660:1.0 444:1.0 319:1.0 1661:1.0 93:1.0 1136:1.0 1668:1.0 648:1.0 1662:1.0 172:0.2914285714285714 
7.082352760932469E-4 3.9146695113327444E-4 5.540185026661813E-4 1004:0.2272727272727273 152:0.2474747474747475 1669:0.2575757575757576 1670:1.0 1054:0.5656565656565657 1671:1.0 206:0.1781450872359963 681:0.1919191919191919 972:0.3333333333333333 1672:1.0 1673:1.0 11:0.18484848484848487 975:0.4040404040404041 645:0.2689393939393939 788:0.4090909090909091 1070:0.40151515151515155 15:0.3747680890538034 946:0.3787878787878788 298:0.5606060606060606 1674:1.0 1058:0.23636363636363641 170:0.0928030303030303 1675:0.2676767676767677 383:0.1168831168831169 1676:1.0 424:1.0 593:0.21969696969696972 324:0.14187327823691462 406:0.3257575757575758 1677:1.0 654:0.3627180899908172 1542:0.09595959595959598 425:0.18181818181818185 1678:1.0 303:0.36363636363636365 960:0.5606060606060606 138:0.10826001955034213 410:0.4545454545454546 137:0.16287878787878787 987:0.7727272727272728 1679:0.8181818181818182 829:0.6212121212121212 194:0.26515151515151514 701:0.2925407925407925 396:0.22405876951331494 830:0.2651515151515152 1680:1.0 545:0.9545454545454547 
1.216476631918521E-4 6.789535567773951E-5 9.604955450082576E-5 704:0.7002096436058701 1419:0.05786163522012579 708:0.04350721420643729 709:0.03333333333333333 1681:1.0 1682:0.6930817610062893 1683:0.28050314465408804 446:0.017861635220125786 1684:1.0 452:0.1861635220125786 1685:1.0 1432:0.07698113207547169 722:0.060377358490566045 1686:1.0 455:0.36477987421383645 1687:0.11069182389937107 728:0.04150943396226415 87:0.020545073375262055 467:0.05911949685534591 1688:0.13773584905660377 1689:0.4620545073375262 33:0.06469002695417789 1690:1.0 1691:0.07169811320754717 1692:1.0 274:0.07911287653095002 39:0.11663807890222984 1641:0.045283018867924525 279:0.03867924528301886 1693:1.0 1694:1.0 970:0.07547169811320753 1695:0.3693920335429769 1696:0.17327044025157234 1458:0.05534591194968553 1697:0.9320754716981133 1698:0.33962264150943394 500:0.08912848158131177 1699:0.20754716981132076 1050:0.07672955974842767 1700:1.0 1701:0.20440251572327042 1703:1.0 1702:0.024150943396226414 156:0.013207547169811321 1704:1.0 12:0.0660377358490566 1705:0.15471698113207544 15:0.20223334616865615 1158:0.07672955974842766 1104:0.31572327044025156 170:0.10015723270440252 174:0.013962264150943395 527:0.01383647798742138 1706:1.0 1707:1.0 1708:1.0 1709:1.0 1710:1.0 1711:0.106638714185884 1712:1.0 1713:0.26037735849056604 308:0.0315692590888173 1714:0.16226415094339622 1112:0.06855345911949685 1715:1.0 1716:0.41006289308176097 547:0.4314465408805032 1717:1.0 1170:0.09056603773584906 317:0.04716981132075471 1407:0.1610062893081761 1718:0.17232704402515725 813:0.14758909853249474 1719:0.2238993710691824 816:0.6641509433962264 561:0.8364779874213835 564:0.012578616352201257 49:0.03689727463312369 326:0.23899371069182393 50:0.009433962264150943 328:0.06792452830188679 1720:1.0 1721:1.0 829:0.15471698113207547 1722:0.10817610062893082 335:0.16226415094339622 831:0.06163522012578616 578:0.33962264150943394 1723:1.0 979:0.05534591194968553 1724:1.0 1336:0.18301886792452832 339:0.08201257861635221 340:0.10356394129979035 68:0.15471698113207544 75:0.07169811320754717 355:0.0880503144654088 1725:1.0 1726:0.21467505241090146 1727:0.11069182389937107 1728:1.0 599:0.047798742138364776 81:0.03921246923707957 84:0.05534591194968553 1729:0.27421383647798736 1730:1.0 1262:0.12327044025157233 854:0.02591194968553459 1731:0.010482180293501049 611:0.20754716981132074 1733:1.0 1732:1.0 870:0.11572327044025157 1080:0.31572327044025156 1734:1.0 1736:0.030188679245283023 1735:1.0 1737:1.0 373:0.03396226415094339 1738:0.01293800539083558 112:0.09685534591194966 38:0.10754716981132076 1739:0.30566037735849055 878:0.4358490566037736 1740:1.0 383:0.04851752021563343 1741:1.0 623:0.038784067085953874 387:0.20754716981132076 1089:0.19874213836477989 1742:1.0 1048:0.17138364779874216 630:0.02012578616352201 1743:1.0 895:1.0 56:0.015723270440251572 148:0.03018867924528302 1744:1.0 151:0.1339622641509434 1745:0.11111111111111112 903:0.09587700908455625 1746:0.169811320754717 1747:1.0 980:0.009119496855345913 153:0.12955974842767295 5:0.09433962264150943 1748:1.0 8:0.1660377358490566 1749:0.07320754716981132 907:0.10817610062893081 155:0.3773584905660377 909:0.12955974842767298 158:0.0440251572327044 982:0.07773584905660377 1750:1.0 1751:0.7094339622641508 647:0.8364779874213835 1752:0.34056603773584904 172:0.012830188679245283 1753:0.07767295597484275 1754:1.0 1755:1.0 1756:0.09433962264150943 408:0.1252830188679245 1757:1.0 188:0.0830188679245283 926:0.9358490566037734 1571:0.2833333333333333 1758:0.34465408805031444 1759:0.23459119496855346 30:0.023877303321196072 1760:1.0 673:0.45081761006289306 1761:1.0 1578:0.27924528301886786 1762:1.0 686:0.04245283018867924 212:0.10733752620545073 941:0.4679245283018867 418:0.061635220125786164 945:0.18490566037735848 45:0.0389937106918239 1763:0.1320754716981132 953:0.02306079664570231 1764:0.5320754716981132 955:0.11194968553459121 698:0.05786163522012579 1765:1.0 1766:0.10566037735849056 430:0.05103324348607367 1767:0.06238993710691824 1602:0.06540880503144654 1768:1.0 1126:0.04276729559748428 1769:1.0 248:0.1018867924528302 1770:0.07515723270440253 1771:1.0 253:0.08251572327044025 1772:1.0 1773:0.3383647798742139 1774:0.0779874213836478 17:0.03773584905660377 727:0.061635220125786164 1775:1.0 1776:1.0 21:0.15251572327044025 1777:1.0 1778:0.10440251572327042 466:0.04025157232704402 1043:0.1559748427672956 473:0.016531895777178795 475:0.14645103324348605 1779:1.0 269:0.08616352201257861 108:0.08553459119496855 1443:0.4427672955974843 1444:0.16352201257861634 1780:0.051572327044025146 753:0.02473794549266247 752:0.1830188679245283 759:0.1031446540880503 760:0.25157232704402516 762:0.09245283018867925 764:0.3349056603773585 1651:0.08050314465408806 1781:1.0 1782:0.09559748427672957 138:0.11683911543923717 54:0.20566037735849058 1783:0.46415094339622637 1784:1.0 1785:1.0 1786:1.0 1787:1.0 1467:0.16226415094339622 1788:0.13962264150943393 289:0.0490566037735849 781:0.042767295597484274 290:0.07960467205750224 1100:0.12075471698113209 518:0.03018867924528302 1789:0.379874213836478 1790:0.12075471698113209 1102:0.0641509433962264 1791:0.06163522012578617 788:0.0339622641509434 1792:1.0 1477:0.04779874213836478 1058:0.029433962264150945 1793:0.052830188679245285 1794:0.12327044025157234 1795:1.0 301:0.035723270440251566 1796:0.15534591194968553 534:0.13941299790356393 799:0.061635220125786164 1797:1.0 540:0.024955974842767296 1798:1.0 801:0.06440251572327044 201:0.13962264150943396 802:0.0779874213836478 1799:0.18113207547169813 1487:0.17012578616352203 545:0.026415094339622643 1800:1.0 206:0.13310463121783875 313:0.1668763102725367 1801:1.0 1802:1.0 551:0.4150943396226415 209:0.2113207547169811 811:0.16352201257861634 1495:0.8500000000000001 1803:0.13584905660377358 1804:0.10817610062893082 41:0.0440251572327044 815:0.558490566037736 46:0.051886792452830184 1805:1.0 823:0.05911949685534591 1806:0.5031446540880502 225:0.02899702085402185 1807:0.06163522012578616 1508:0.02389937106918239 232:0.05911949685534591 1183:0.08050314465408805 1515:0.0440251572327044 337:0.6012578616352201 580:0.0220125786163522 1808:0.46415094339622637 1672:0.0830188679245283 841:0.22893081761006284 67:0.04654088050314465 343:0.03018867924528302 352:0.015408805031446543 1809:0.48805031446540875 1523:0.09523809523809523 1810:0.05157232704402515 1811:1.0 845:0.06509433962264151 1812:1.0 600:0.490566037735849 1813:1.0 1814:1.0 1815:0.11069182389937106 25:0.19407008086253372 1533:0.13773584905660377 1816:0.46415094339622637 1817:0.11949685534591195 1136:0.0220125786163522 857:0.04716981132075471 859:0.3660377358490566 1818:1.0 867:0.061635220125786164 1819:0.01761006289308176 1044:0.26415094339622636 1820:1.0 1821:0.169811320754717 1822:0.5635220125786163 117:0.04716981132075471 879:0.12075471698113206 42:0.7363993710691824 1823:1.0 43:0.07337526205450735 883:0.3186582809224318 127:0.04276729559748428 1542:0.007966457023060796 1824:0.11729559748427672 1825:1.0 1545:0.09811320754716979 1826:0.09056603773584905 137:0.027044025157232702 1827:0.022012578616352203 1828:0.7962264150943397 902:0.05817610062893082 1829:1.0 1830:1.0 1831:0.13962264150943396 642:0.20503144654088049 1832:0.19622641509433963 1833:1.0 1834:0.24905660377358488 645:0.1339622641509434 166:0.06415094339622641 1561:0.5006289308176101 1835:0.6484276729559748 648:0.04402515723270441 1566:0.570062893081761 654:0.060224890413569654 182:0.04654088050314465 1391:0.027672955974842765 1836:1.0 1837:1.0 1292:0.009224318658280923 1838:0.0779874213836478 1007:0.030188679245283023 1839:1.0 189:0.054088050314465404 1840:0.230188679245283 664:0.05941898772087451 1297:0.09339622641509433 200:0.055345911949685536 931:0.11572327044025157 1841:0.17861635220125785 1842:0.3572327044025157 414:0.1630188679245283 1575:0.36981132075471707 1843:0.26037735849056604 674:0.18490566037735848 937:0.09308176100628929 684:0.16855345911949685 1585:0.2770440251572327 1586:0.09056603773584905 946:0.031446540880503145 950:0.011320754716981133 1844:1.0 1845:0.15283018867924528 1846:1.0 1847:1.0 1848:0.04402515723270441 427:0.05534591194968553 1849:0.09433962264150943 1850:0.12075471698113208 1314:0.6138364779874214 1851:0.11194968553459118 1852:1.0 
1.1536614156576144E-4 7.199319436382995E-5 9.172075861547775E-5 704:0.6761133603238866 1892:0.04588394062078272 4:0.13090418353576247 708:0.023338890211955225 1893:0.5033738191632928 1894:0.049932523616734135 1895:1.0 245:0.04258509521667416 1896:1.0 1897:1.0 438:0.4251012145748988 1898:1.0 716:0.3360323886639676 1899:0.06612685560053981 1900:0.17273954116059378 440:0.0743739691108112 441:0.12415654520917678 1901:0.040485829959514164 1902:1.0 453:0.06747638326585695 452:0.09986504723346828 719:0.16464237516869093 1903:1.0 454:0.18893387314439944 1904:0.10526315789473685 1774:0.04183535762483131 17:0.06072874493927126 722:0.032388663967611336 1905:1.0 258:0.026855600539811064 455:0.09784075573549256 457:0.2010796221322537 458:0.09581646423751686 1906:0.09581646423751686 1907:0.09109311740890687 728:0.044534412955465584 727:0.16531713900134953 1908:0.34547908232118757 1909:0.20377867746288797 1910:0.05668016194331983 24:0.2125506072874494 736:0.5020242914979758 1074:0.06207827260458839 1911:1.0 1912:1.0 989:0.023954116059379214 466:0.043184885290148446 263:0.05060728744939271 1913:1.0 471:0.14709851551956812 744:0.20242914979757082 473:0.1241565452091768 474:0.35087719298245607 33:0.041642567958357427 1914:1.0 108:0.04588394062078272 1916:1.0 1915:0.04161043634727845 1917:0.5168690958164642 1918:0.5371120107962213 272:0.04475933423301844 975:0.03598740440845704 1919:0.18893387314439947 485:0.05465587044534413 274:0.06790254989700974 1920:1.0 39:0.12513801987486198 1921:0.12010796221322535 752:0.06545209176788123 1922:0.27935222672064774 1923:1.0 1924:0.09581646423751686 1925:0.9014844804318487 281:0.03238866396761134 762:0.09919028340080972 764:0.07186234817813765 765:0.08367071524966262 129:0.04723346828609986 1927:0.1632928475033738 1926:0.27935222672064774 1928:0.05937921727395411 136:0.048582995951417 138:0.17356667101998172 1697:1.0 498:0.05668016194331984 1929:0.17273954116059378 773:0.05802968960863697 500:0.478118372855215 142:0.04048582995951417 1930:0.7827260458839405 1932:0.23076923076923075 1465:0.27800269905533065 1931:1.0 1933:0.10188933873144398 1934:1.0 1935:0.027665317139001347 1936:1.0 1937:1.0 1938:1.0 1939:0.04183535762483131 289:0.10526315789473685 1940:0.05128205128205128 1469:0.39946018893387314 1941:1.0 1942:0.15384615384615385 12:0.28340080971659926 294:0.08367071524966262 518:0.032388663967611336 784:0.27935222672064774 1943:1.0 1387:0.05533063427800269 15:0.15021069156407504 1944:0.28340080971659914 1058:0.04210526315789474 1478:0.44129554655870445 170:0.008265856950067476 526:1.0 171:0.07287449392712551 174:0.014979757085020242 527:0.014844804318488527 1038:0.027665317139001347 1793:0.11336032388663968 175:0.018218623481781375 529:0.05128205128205128 792:0.07692307692307691 794:1.0 1945:0.2564102564102564 795:0.09705582637913465 1946:1.0 302:0.033738191632928474 301:0.0766531713900135 1947:1.0 1481:0.14035087719298245 1948:0.04723346828609987 1949:1.0 538:0.37786774628879893 1950:0.24561403508771926 799:0.06612685560053981 540:0.05354925775978408 1484:0.049932523616734135 1951:0.14709851551956815 308:0.1467693624304664 801:0.06909581646423751 201:0.04993252361673413 802:0.16734143049932523 1486:0.534412955465587 1952:1.0 1953:0.008367071524966262 1954:1.0 805:0.08151147098515518 1955:0.36302294197031043 1956:0.854251012145749 206:0.17453891138101663 1957:0.07692307692307693 1170:0.032388663967611336 1958:1.0 1959:0.014459224985540774 319:0.09446693657219973 1640:0.17273954116059378 41:0.04723346828609986 813:0.31668915879442194 815:0.5392712550607288 1242:0.3292847503373819 1960:1.0 322:0.01417004048582996 1500:0.27530364372469635 1675:0.011920827710301393 1961:1.0 1962:1.0 560:0.033063427800269905 1963:1.0 564:0.013495276653171389 1964:0.13360323886639675 1248:0.13360323886639675 822:0.029689608636977054 49:0.11875843454790824 327:0.032388663967611336 50:0.010121457489878543 824:0.04966261808367071 1505:0.24318488529014845 1180:0.08636977058029689 225:0.015555082037076498 1965:1.0 1966:1.0 829:0.1106612685560054 1967:1.0 236:0.05128205128205129 335:0.05802968960863697 1621:0.0620782726045884 1512:1.0 575:0.340080971659919 578:0.18218623481781376 1968:1.0 2:0.0242914979757085 979:0.17813765182186236 582:0.06241565452091767 1969:1.0 1970:0.4089068825910931 339:0.08798920377867747 67:0.049932523616734135 1972:1.0 1971:1.0 68:0.33198380566801616 1974:1.0 1973:1.0 347:0.09851551956815115 1975:0.4993252361673413 1976:1.0 1977:0.055330634278002694 1978:0.26855600539811064 847:0.13360323886639675 16:0.0736842105263158 846:0.1369770580296896 18:0.1417004048582996 971:0.040485829959514164 1979:0.07692307692307693 600:0.17543859649122806 1980:1.0 81:0.07011676348060789 1981:0.08097165991902834 1982:1.0 1983:1.0 25:0.052053209947946794 1984:0.04588394062078272 1136:0.023616734143049933 1985:1.0 1354:0.07332433648223122 368:0.6450742240215924 32:0.0816464237516869 866:0.055330634278002694 1986:1.0 1734:0.08940620782726046 1987:0.32793522267206476 1988:1.0 1989:1.0 373:0.03643724696356275 111:0.4237516869095816 1991:0.7638326585695006 1990:0.4433198380566802 1992:1.0 1993:0.4939271255060728 38:0.38461538461538464 617:0.055330634278002694 1994:0.38326585695006743 1821:0.03643724696356275 1995:1.0 1997:0.47503373819163286 1996:1.0 117:0.0506072874493927 1537:0.06612685560053981 119:0.03508771929824561 1998:1.0 42:0.1704059829059829 1643:0.011695906432748536 1999:1.0 43:0.06297795771479982 623:0.04161043634727845 2000:1.0 2001:1.0 1883:0.07017543859649122 2002:0.3643724696356275 1824:0.12584345479082318 1089:0.10661268556005399 2003:1.0 2005:0.25 1048:0.03677462887989203 2004:1.0 137:0.043522267206477734 630:0.18353576248313092 2006:0.22064777327935223 2007:1.0 632:0.8974358974358972 2008:1.0 396:0.0199566515355989 56:0.016869095816464237 1:0.020917678812415654 152:0.044084570400359874 903:0.05143199880041985 980:0.009784075573549258 3:0.0748987854251012 2009:0.11032388663967611 2011:0.17543859649122803 2010:0.46288798920377866 635:0.031938821412505626 2012:0.27935222672064774 2013:1.0 1285:0.059379217273954114 909:0.06950067476383266 982:0.05560053981106612 2015:0.16599190283400805 2014:1.0 1556:0.11875843454790823 2016:0.13090418353576247 2017:0.2469635627530364 2018:1.0 645:0.023954116059379214 2019:1.0 172:0.03441295546558705 650:0.2672064777327935 2020:1.0 1566:0.25020242914979757 406:0.02901484480431849 654:0.032306874412137566 182:0.09986504723346827 1162:0.03643724696356276 1391:0.029689608636977054 2021:0.34547908232118757 1294:0.011246063877642825 22:0.09716599190283401 2023:0.14035087719298242 2022:0.2631578947368421 2024:0.7125506072874493 410:0.08097165991902834 189:0.058029689608636977 2025:0.47503373819163286 194:0.04723346828609987 2027:0.13225371120107962 197:0.3022941970310391 2026:0.6693657219973009 1574:0.3225371120107962 931:0.06207827260458839 30:0.12808674858536356 2029:1.0 2028:0.34547908232118757 2031:0.45074224021592435 2030:1.0 2032:1.0 2033:1.0 1843:0.5587044534412955 674:0.11336032388663968 2034:0.13225371120107962 2036:0.2631578947368421 2035:0.554655870445344 2037:0.07430836707152498 2039:0.19838056680161945 2038:1.0 2040:1.0 1581:0.11133603238866396 2041:1.0 2042:0.20917678812415652 212:0.34547908232118757 2043:0.05802968960863697 2045:0.09244264507422402 1307:0.11875843454790821 2044:1.0 418:0.06612685560053981 419:0.19163292847503371 2046:1.0 2047:1.0 950:0.012145748987854251 2048:1.0 696:0.0413855150697256 217:0.15114709851551958 2049:1.0 955:0.12010796221322538 2050:0.09581646423751686 2051:1.0 958:0.08084897558581769 973:0.04048582995951417 2052:0.09851551956815115 2053:0.18218623481781376 226:0.0692757534862798 429:0.08421052631578949 2054:1.0 1599:1.0 2055:1.0 2056:0.7611336032388663 2057:1.0 2058:1.0 2059:1.0 965:0.24291497975708498 2060:1.0 2061:1.0 57:0.02456140350877193 
4.1764713183769765E-4 2.2682885236053523E-4 3.210822851191243E-4 1004:0.2112676056338028 1:0.1091549295774648 2062:1.0 635:1.0 2063:1.0 993:0.3943661971830986 676:1.0 2065:1.0 2064:1.0 2066:1.0 2067:1.0 972:0.3098591549295775 616:0.704225352112676 64:1.0 479:1.0 2068:1.0 2069:1.0 486:1.0 1269:1.0 645:1.0 788:0.3802816901408451 2070:1.0 2071:1.0 75:0.2676056338028169 172:0.3591549295774648 593:0.20422535211267606 2073:1.0 2072:1.0 127:0.4788732394366198 2074:1.0 2075:1.0 761:0.23943661971830982 301:0.19999999999999998 82:0.11830985915492959 627:0.4366197183098592 2076:0.4366197183098592 137:0.45422535211267606 2077:1.0 138:0.10063607451158564 829:0.5774647887323944 1333:0.2535211267605634 148:0.3380281690140845 2078:1.0 2079:1.0 2080:1.0 
2.3052038303911736E-4 1.2169388782649106E-4 1.803644764262493E-4 2081:1.0 2082:1.0 2083:1.0 245:0.3321637426900585 65:0.468421052631579 2084:1.0 2085:1.0 355:0.18421052631578946 258:0.10473684210526316 725:0.4491228070175438 79:0.1842105263157895 2086:0.5368421052631579 848:0.6736842105263158 82:0.04421052631578947 2087:1.0 362:0.16052631578947368 89:0.27631578947368424 90:0.6526315789473685 2088:1.0 1817:1.0 95:0.1705263157894737 1137:0.12631578947368421 856:0.12631578947368421 96:0.4631578947368421 97:0.5438596491228069 2089:1.0 864:0.2131578947368421 615:0.24276315789473688 2090:0.5122807017543861 2091:1.0 2092:0.7263157894736841 2093:0.512280701754386 1738:0.21654135338345865 36:0.12631578947368421 114:0.19736842105263155 2095:1.0 2094:0.1842105263157895 272:0.17456140350877192 1269:0.3736842105263158 2096:0.9473684210526315 2097:1.0 2098:1.0 2100:1.0 2099:1.0 2101:1.0 1448:0.5105263157894736 123:0.47368421052631576 883:1.0 2102:0.22105263157894736 2103:1.0 129:0.18421052631578946 2104:0.6736842105263158 2105:1.0 2106:1.0 974:0.15789473684210525 1090:0.31578947368421056 138:0.07521222410865874 2107:1.0 2108:1.0 2109:1.0 1548:0.13157894736842105 2110:0.5578947368421052 509:0.20000000000000004 2111:1.0 1855:0.7842105263157895 2112:0.4368421052631579 402:0.3473684210526316 158:0.18421052631578946 1624:0.5578947368421053 2113:1.0 2114:0.25263157894736843 2115:1.0 1155:0.08421052631578947 2116:0.10947368421052629 1008:0.12631578947368421 161:0.053947368421052626 2117:0.6421052631578947 2118:0.981578947368421 2119:0.32105263157894737 2120:0.05263157894736842 170:0.12894736842105262 172:0.0805263157894737 175:0.07105263157894738 406:0.33947368421052637 179:0.1842105263157895 1945:1.0 2121:1.0 1711:0.44619883040935676 2122:0.5763157894736843 2123:1.0 308:0.2641848523748396 2124:0.2578947368421053 309:1.0 2125:1.0 30:0.1998153277931671 2126:1.0 2127:0.3315789473684211 2128:1.0 2129:1.0 2130:1.0 2131:1.0 2132:0.37368421052631573 2133:1.0 216:0.9631578947368421 1675:0.04649122807017544 2134:1.0 2135:0.768421052631579 326:1.0 2136:1.0 2137:1.0 2138:1.0 2139:0.3526315789473684 228:0.4982456140350877 1807:0.2578947368421053 2140:1.0 2141:0.49473684210526314 701:0.10161943319838056 235:0.2789473684210526 
2.733241628983439E-4 1.553055380916943E-4 2.1391366892766438E-4 152:0.10961968680089484 153:0.6912751677852349 1853:1.0 1854:1.0 1855:1.0 245:0.1058911260253542 1336:0.976510067114094 1856:1.0 1857:0.11996644295302013 1858:1.0 65:0.5973154362416108 249:0.6644295302013422 1219:0.6208053691275168 291:1.0 158:0.23489932885906037 294:0.2080536912751678 1859:1.0 1860:1.0 1861:0.19127516778523493 351:0.476510067114094 1862:1.0 1863:1.0 1864:1.0 1865:1.0 1866:1.0 172:0.13691275167785236 1290:0.1837248322147651 179:0.23489932885906042 1867:1.0 792:0.38255033557046975 79:0.23489932885906042 1868:1.0 82:0.22550335570469798 88:1.0 362:0.2046979865771812 1869:1.0 658:0.14765100671140938 1870:1.0 194:0.4697986577181208 1871:0.4093959731543624 201:0.49664429530201337 1872:1.0 1873:1.0 30:0.3821971034969975 545:0.4228187919463087 747:1.0 1636:0.4295302013422819 271:0.9530201342281879 1267:1.0 375:1.0 36:0.37583892617449666 317:0.25167785234899326 1874:1.0 483:0.2751677852348993 1876:1.0 1875:1.0 1877:1.0 1878:1.0 1879:1.0 321:1.0 122:1.0 1880:0.6644295302013422 1370:0.6442953020134229 123:0.2013422818791946 127:0.45637583892617445 219:1.0 1881:1.0 1882:1.0 1884:0.20134228187919462 129:0.2348993288590604 1883:0.34899328859060397 1885:1.0 1886:0.15436241610738255 974:0.40268456375838924 227:1.0 136:0.8456375838926175 138:0.09590820523922926 137:0.360738255033557 1887:0.2080536912751678 1888:1.0 1890:1.0 1889:1.0 232:0.31543624161073824 1891:0.4161073825503356 151:0.47651006711409394 397:1.0 
2.4277476821461073E-4 1.3871330503853875E-4 1.9322034436049197E-4 2:0.07407407407407408 2142:1.0 247:0.12345679012345678 2144:1.0 2143:1.0 2145:0.08573388203017834 1019:0.2716049382716049 2146:1.0 718:1.0 2147:0.1080246913580247 1774:0.12757201646090538 593:0.05967078189300413 16:0.0748971193415638 2148:1.0 2149:1.0 2150:1.0 79:0.1440329218106996 2151:1.0 1329:0.4279835390946502 2152:0.3333333333333334 2153:0.08286063841619398 2154:0.8189300411522634 2155:1.0 2156:0.3004115226337449 1004:0.0617283950617284 2157:1.0 2159:1.0 2158:0.3292181069958848 2160:1.0 2161:0.1975308641975309 2162:1.0 2163:1.0 477:0.2139917695473251 2164:0.18312757201646093 479:0.5843621399176956 1085:0.6666666666666669 272:0.1364883401920439 2165:1.0 2166:1.0 2167:1.0 2168:1.0 2169:1.0 1209:1.0 127:0.13991769547325103 2170:1.0 2171:0.16460905349794241 2172:1.0 496:0.35390946502057613 1883:0.2139917695473251 2173:1.0 2174:0.20164609053497948 1666:0.1440329218106996 2175:1.0 631:1.0 2176:1.0 2177:1.0 287:0.1954732510288066 1:0.03189300411522634 635:0.09739368998628259 1553:0.06035665294924556 1935:0.8858024691358024 509:0.1563786008230453 2178:1.0 513:0.5267489711934157 972:0.09053497942386832 292:0.4012345679012346 2179:0.5967078189300411 1154:0.20164609053497945 518:0.09876543209876545 2180:1.0 161:0.7170781893004116 2181:1.0 1626:0.26337448559670784 170:0.05041152263374486 2182:1.0 2183:0.08436213991769548 2184:0.3374485596707819 2185:1.0 1163:0.35390946502057613 301:0.05843621399176955 2186:1.0 188:0.271604938271605 1297:0.10185185185185185 2187:1.0 2188:0.3333333333333334 2189:1.0 30:0.07811710345823407 2190:1.0 206:0.3870806833769797 685:0.09670781893004116 2191:0.9053497942386832 2192:0.8436213991769547 2193:1.0 1642:0.17558299039780523 1845:1.0 2194:1.0 1247:0.7242798353909466 2195:1.0 2196:0.3786008230452675 2197:1.0 698:0.18930041152263377 2198:1.0 331:0.21604938271604937 2199:1.0 701:0.07945552389996834 2200:0.36625514403292186 234:0.43209876543209874 2201:0.2921810699588478 
5.566338938308643E-4 3.14803862825208E-4 4.5044899840534743E-4 1:0.17613636363636365 1004:0.3409090909090909 245:0.7171717171717172 2202:1.0 972:0.5 373:0.6136363636363636 2203:1.0 36:0.36363636363636365 2204:1.0 2205:1.0 447:0.8409090909090908 172:0.8113636363636363 593:0.3295454545454546 1005:0.5454545454545455 258:0.45227272727272727 1479:1.0 2171:0.22727272727272727 624:1.0 82:0.19090909090909092 2206:1.0 84:1.0 1006:0.5454545454545455 1666:0.7954545454545454 1009:0.5454545454545454 145:0.5863636363636364 2208:1.0 2207:1.0 701:0.8776223776223777 2209:1.0 30:0.21570972886762363 
9.495610839713058E-4 5.418559778455457E-4 7.560152149196589E-4 593:1.0 980:1.0 2210:0.3655172413793103 2211:1.0 972:0.7586206896551725 2212:1.0 1294:0.28735632183908044 2213:1.0 587:0.17931034482758618 226:0.7586206896551724 554:1.0 274:0.21687840290381125 2214:1.0 2215:1.0 2216:1.0 15:0.4264602392681211 170:0.21120689655172412 2218:1.0 2217:1.0 
1.4268999446092608E-4 8.297785995364039E-5 1.1160374260886985E-4 435:0.2112211221122112 709:0.04372937293729373 981:0.15227039945373846 2219:1.0 710:0.12871287128712872 1126:0.05610561056105611 438:0.2079207920792079 10:0.039603960396039604 1900:0.42244224422442245 440:0.22735606894022736 2221:0.36633663366336633 2220:1.0 444:0.11551155115511551 448:0.2475247524752475 1427:1.0 1428:0.4955995599559956 2222:1.0 2223:0.9900990099009901 1774:0.05115511551155116 727:0.1212871287128713 2224:1.0 728:0.054455445544554455 460:0.058580858085808575 2225:0.4653465346534653 2226:0.7029702970297029 1619:0.0187018701870187 21:0.12004950495049505 2227:1.0 2228:0.0759075907590759 2229:1.0 24:0.17326732673267325 2230:1.0 2231:1.0 2232:0.9092409240924093 2233:0.32838283828382836 2234:1.0 93:0.057755775577557754 2235:1.0 95:0.05346534653465348 741:0.16171617161716173 471:0.17986798679867982 2236:1.0 2237:0.5363036303630363 1004:0.024752475247524754 1691:0.09405940594059406 2238:0.08745874587458746 1201:0.3030803080308031 1054:0.030803080308030806 2239:0.17986798679867982 1443:0.5808580858085809 478:0.27282728272827284 975:0.04400440044004401 274:0.1245440333507035 488:0.034653465346534656 2240:1.0 123:0.0495049504950495 2241:0.1353135313531353 970:0.0495049504950495 2242:0.039603960396039604 2243:0.6105610561056105 1455:0.16336633663366337 2244:0.5222772277227723 1696:0.22731023102310233 2245:1.0 2247:0.45462046204620465 2246:1.0 498:0.27722772277227725 138:0.08253486638986479 54:0.35973597359735976 500:0.2338519566242339 2248:1.0 2249:1.0 1050:0.10066006600660066 1935:0.016914191419141914 1788:0.18316831683168316 12:0.11551155115511552 1155:0.026402640264026403 2250:1.0 2252:0.30445544554455445 15:1.0 2251:0.07535753575357536 1158:0.10066006600660066 1477:0.06270627062706272 2253:1.0 1058:0.16732673267326734 2254:0.4785478547854786 2255:0.13366336633663367 170:0.16171617161716173 171:0.029702970297029705 174:0.01831683168316832 2256:0.9059405940594059 527:0.054455445544554455 529:0.09405940594059406 301:0.02343234323432343 2257:1.0 2258:1.0 1713:0.3415841584158416 540:0.19643564356435647 2259:1.0 2260:1.0 308:0.1932705465668518 802:0.5115511551155114 545:0.0693069306930693 1953:0.010231023102310232 2261:1.0 1716:0.5379537953795379 2262:0.9092409240924093 206:0.1552155215521552 2263:0.13696369636963696 1055:0.2863670982482864 2264:1.0 2265:0.16336633663366334 2266:1.0 1959:0.01768033946251768 2267:0.42244224422442245 2268:1.0 1675:0.029152915291529153 2269:0.0429042904290429 2270:1.0 2271:1.0 2272:0.30445544554455445 1245:0.0407040704070407 1059:0.09735973597359736 2273:1.0 49:0.024202420242024205 823:0.23267326732673269 2274:0.23927392739273928 328:0.0891089108910891 824:0.03036303630363036 2275:1.0 573:0.02186468646864687 2276:1.0 1123:0.13806380638063806 2277:1.0 2278:0.04950495049504951 2279:0.07260726072607261 979:0.29042904290429045 582:0.6105610561056105 2280:0.09405940594059407 1970:1.0 339:0.1075907590759076 839:0.04840484048404842 343:0.11881188118811882 2281:1.0 844:0.051980198019801985 1676:0.10891089108910891 845:0.0853960396039604 16:0.030033003300330034 1726:0.42244224422442245 2282:0.099009900990099 2283:1.0 2284:0.020744931636020744 854:0.03399339933993399 1731:0.013751375137513752 611:0.8168316831683169 2285:0.22982298229822984 2286:1.0 2287:1.0 2288:1.0 373:0.04455445544554456 1738:0.033946251768033946 1056:0.04895489548954896 2094:0.057755775577557754 38:0.04702970297029703 2289:0.012582508250825082 1537:0.1617161716171617 2290:0.23432343234323433 42:0.20836771177117716 1613:0.02557755775577558 2291:1.0 2292:1.0 43:0.019251925192519254 2293:1.0 2294:1.0 1542:0.020902090209020903 2295:1.0 2171:0.016501650165016504 387:0.09075907590759076 2296:0.27722772277227725 629:0.09405940594059407 2297:0.31683168316831684 630:0.132013201320132 2298:0.41969196919691976 56:0.5156765676567657 2299:1.0 2300:1.0 152:0.02695269526952695 1:0.07673267326732673 3:0.06105610561056105 8:0.054455445544554455 1554:0.3415841584158416 2301:0.0726072607260726 638:0.039430258815355224 2303:1.0 2302:1.0 2304:1.0 2305:1.0 2306:1.0 166:0.08415841584158415 2307:0.6782178217821783 168:0.06930693069306931 2308:0.2227722772277228 2309:1.0 2310:1.0 2312:1.0 2311:1.0 2313:1.0 406:0.035478547854785485 654:0.17776777677767774 2315:1.0 2314:1.0 1838:0.20462046204620465 2316:1.0 410:0.1485148514851485 1109:0.011551155115511552 2317:1.0 194:0.20214521452145212 664:0.23385195662423386 1297:0.040841584158415836 930:0.785038503850385 931:0.45544554455445546 30:0.023493138787562966 2063:0.11716171617161715 2035:0.6782178217821783 2319:1.0 2318:1.0 2320:1.0 2321:1.0 939:0.24422442244224424 2322:1.0 2323:1.0 45:0.3580858085808581 2324:1.0 953:0.030253025302530254 2325:0.13366336633663367 2326:0.5899339933993399 2196:0.3036303630363036 2327:1.0 2328:0.9092409240924093 2329:0.07343234323432343 2330:1.0 226:0.0121012101210121 960:0.06105610561056105 2331:1.0 2333:1.0 2332:1.0 
2.602938589762751E-4 1.4848674679314168E-4 2.1169791460978876E-4 2334:0.7077625570776256 438:0.8630136986301369 249:0.4520547945205479 67:0.3378995433789954 2336:0.2009132420091324 2335:1.0 347:1.0 593:0.06621004566210047 16:0.24931506849315066 17:0.0684931506849315 18:0.23972602739726026 599:0.2602739726027397 2337:1.0 2338:1.0 87:0.0745814307458143 2339:0.5662100456621004 89:0.4794520547945205 2340:1.0 2341:1.0 1533:1.0 1262:0.8949771689497718 364:0.5570776255707761 1688:1.0 97:0.35388127853881274 471:0.49771689497716887 31:0.18082191780821918 2342:1.0 35:0.1598173515981735 2343:1.0 2345:1.0 2344:0.9315068493150683 274:0.37334775294400385 878:0.2876712328767123 119:0.1187214611872146 2347:1.0 2346:1.0 2348:1.0 2349:0.9269406392694065 43:0.106544901065449 2350:0.8424657534246576 1540:1.0 759:0.1872146118721461 2241:0.18721461187214614 2351:1.0 127:0.1552511415525114 388:0.15981735159817353 1458:0.4018264840182648 630:0.0730593607305936 137:0.14726027397260272 138:0.06525261452349389 773:0.1963470319634703 1213:0.10958904109589042 2352:1.0 56:0.05707762557077625 148:0.0547945205479452 2353:1.0 152:0.0745814307458143 153:0.4703196347031964 2354:1.0 154:0.4977168949771689 1284:0.22602739726027396 400:1.0 289:0.35616438356164387 982:0.28219178082191776 2355:1.0 518:0.10958904109589043 2356:1.0 1476:0.45205479452054786 2357:0.5936073059360729 170:0.027968036529680364 172:0.023287671232876714 1290:1.0 2358:1.0 2359:1.0 2360:1.0 301:0.06484018264840183 2021:0.5844748858447488 198:0.10241356816699283 2361:1.0 308:0.07640049003229758 2362:1.0 2363:1.0 30:0.19502523431867338 312:0.40639269406392686 807:0.2146118721461187 206:0.05368756053687561 2364:0.2876712328767123 2365:0.4474885844748858 2366:1.0 317:0.17123287671232873 211:0.15677321156773208 811:0.2968036529680365 2367:1.0 945:0.33561643835616434 322:0.1917808219178082 2369:0.4018264840182648 2368:1.0 2370:1.0 2371:1.0 2372:1.0 49:0.2678843226788432 956:0.2694063926940639 2274:0.6621004566210045 2373:1.0 2052:1.0 225:1.0 429:0.4273972602739727 430:0.1852576647097195 232:0.1430745814307458 1317:0.4383561643835617 234:0.9589041095890409 2374:1.0 832:0.07077625570776255 
2.595611990461434E-4 1.5209283298496412E-4 2.0305353525388003E-4 336:0.35443037974683544 978:0.42194092827004215 1517:0.3375527426160337 2440:0.26160337552742613 245:0.06657290201593999 2441:0.18565400843881855 64:0.09985935302390997 1857:0.15084388185654007 65:0.3755274261603375 347:0.3080168776371308 2442:1.0 446:0.6291139240506329 350:0.26582278481012656 2443:0.8987341772151897 2444:1.0 355:0.14767932489451474 17:0.06329113924050632 1259:0.6835443037974683 458:0.2995780590717299 1526:0.939521800281294 2445:0.21097046413502107 79:0.14767932489451477 81:0.043845166024582646 82:0.35443037974683544 362:0.12869198312236285 989:0.22468354430379747 2446:1.0 857:0.6329113924050632 1139:0.04360056258790435 1354:0.11462728551336145 2447:1.0 744:0.6329113924050631 2448:1.0 747:0.3143459915611814 1637:0.540084388185654 616:0.10548523206751052 1202:1.0 2449:0.19971870604781994 617:0.17299578059071727 618:0.350210970464135 2450:1.0 2205:0.18565400843881855 117:0.3164556962025316 1086:0.22362869198312232 1206:0.14662447257383965 1208:0.47046413502109696 2349:0.8565400843881856 1449:0.34177215189873417 2451:1.0 1924:0.2995780590717299 1147:0.3853727144866385 127:0.14345991561181434 2210:0.04472573839662446 2452:0.4135021097046414 129:0.14767932489451477 1089:1.0 1545:0.32911392405063283 1277:0.6835443037974684 2076:0.13080168776371306 136:0.15189873417721517 2453:0.30379746835443033 137:0.09071729957805906 2454:0.25738396624472565 138:0.12059343949911527 393:0.4008438818565401 396:0.24958445211609762 1216:0.4683544303797468 2455:0.4683544303797468 151:0.14978902953586498 902:0.1951476793248945 977:0.5569620253164556 1466:0.22784810126582278 2456:1.0 1553:0.030942334739803096 1467:0.5443037974683543 1284:0.20886075949367086 2457:1.0 781:0.2869198312236287 2458:0.24753867791842477 158:0.14767932489451474 982:0.08691983122362867 2459:1.0 12:0.14767932489451477 404:0.47257383966244726 163:0.6329113924050632 2460:1.0 2461:1.0 168:0.0590717299578059 172:0.6025316455696202 2462:1.0 1106:0.5126582278481012 2463:0.6278481012658228 179:0.14767932489451477 1162:0.1139240506329114 301:0.05991561181434599 2465:1.0 2464:1.0 2466:0.35021097046413496 2468:1.0 2467:1.0 411:1.0 194:0.07383966244725737 2469:1.0 1297:0.20886075949367086 308:0.03529896058454255 2470:1.0 2471:0.3122362869198312 30:0.04004737582352506 2472:0.44936708860759494 2473:0.21097046413502105 2474:1.0 2475:1.0 674:0.08860759493670886 206:0.04961002429356859 552:1.0 808:0.17848101265822783 2476:1.0 317:0.15822784810126578 211:0.7243319268635724 319:0.2953586497890295 318:0.8945147679324895 946:0.10548523206751055 2477:1.0 1241:0.759493670886076 321:0.6286919831223629 1413:1.0 2478:0.10464135021097046 322:0.04430379746835443 45:0.13080168776371306 2479:1.0 2480:1.0 427:0.18565400843881852 227:0.08981314044605183 226:0.030942334739803092 1122:0.4177215189873417 701:0.1629341123012009 2481:1.0 335:0.18143459915611812 967:0.7088607594936709 
4.5772387897977503E-4 2.5462029321148943E-4 3.658739821014622E-4 1004:0.3409090909090909 2482:0.9318181818181818 2484:1.0 2483:0.5681818181818182 972:0.5 781:0.7727272727272727 485:0.9204545454545455 161:0.23295454545454544 117:0.8522727272727272 2485:1.0 2486:1.0 593:0.3295454545454546 2487:0.8806818181818181 2241:0.9318181818181819 564:0.22727272727272727 2488:1.0 565:0.7207792207792206 531:1.0 2489:1.0 49:0.33333333333333337 2490:1.0 599:0.8636363636363636 2491:1.0 2492:1.0 658:1.0 2493:1.0 2494:0.42045454545454547 2495:1.0 2496:1.0 30:0.10785486443381181 2497:1.0 
3.0392140694425127E-4 1.7082398872444407E-4 2.3592203860550514E-4 2500:0.6862745098039216 2499:0.9117647058823529 2498:0.26552287581699346 61:1.0 708:0.05651672433679355 2501:0.4477124183006536 2502:1.0 245:0.05156136528685549 1336:0.4754901960784314 246:0.134640522875817 2503:0.07843137254901962 437:0.10130718954248367 2504:0.8790849673202615 10:0.0784313725490196 67:0.2418300653594771 587:0.03398692810457517 2505:0.6045751633986928 446:0.0696078431372549 1901:0.09803921568627451 2506:0.28594771241830064 253:0.02679738562091503 352:0.0800653594771242 717:0.12200435729847496 2507:0.8137254901960785 453:0.08169934640522876 2508:0.25490196078431376 1256:0.1699346405228758 1432:1.0 2509:0.8790849673202616 1259:0.5294117647058824 258:0.06503267973856208 2510:1.0 82:0.05490196078431373 81:0.03395851094060813 2511:0.741830065359477 87:0.0533769063180828 1815:0.28758169934640526 2512:1.0 2513:0.20261437908496732 25:0.06302521008403361 1533:0.35784313725490197 1354:0.08877995642701525 97:0.16884531590413945 867:0.6405228758169935 2514:0.6405228758169935 2515:1.0 100:0.3643790849673203 2516:1.0 2517:1.0 108:0.2222222222222222 1359:0.48257080610021785 2518:0.23529411764705882 1015:0.2549019607843137 2519:0.1111111111111111 1738:0.2352941176470588 2520:1.0 36:0.1568627450980392 617:0.2679738562091503 618:0.2712418300653595 2521:1.0 274:0.41107671138630897 2205:0.5751633986928104 2522:1.0 2523:0.13970588235294118 2524:1.0 488:0.06862745098039216 117:0.24509803921568624 119:0.08496732026143791 2525:1.0 1206:0.11356209150326797 2526:0.8137254901960785 383:0.12605042016806722 43:0.07625272331154684 123:0.588235294117647 883:0.20697167755991283 2527:0.12566844919786097 2528:0.6960784313725491 2529:1.0 2530:1.0 623:0.10076252723311546 1542:0.04139433551198257 386:0.4607843137254902 2210:0.03464052287581699 1089:0.2581699346405229 130:0.3529411764705882 1006:0.03921568627450981 2531:0.4248366013071896 136:0.11764705882352942 138:0.140101201771031 630:0.13071895424836602 2454:0.19934640522875816 2532:0.5718954248366014 396:0.09665280253515547 56:0.12254901960784315 149:0.47385620915032683 150:0.17102396514161222 2533:1.0 152:0.16013071895424835 1381:0.488562091503268 2534:0.6045751633986928 2535:0.23692810457516342 294:0.20261437908496732 2536:1.0 403:0.24509803921568626 2538:0.5718954248366014 2537:0.06862745098039216 1558:0.4172113289760349 161:0.03349673202614379 2539:0.5529411764705882 645:0.05800653594771242 1157:0.6405228758169935 168:0.04575163398692811 1058:0.07647058823529412 170:0.1801470588235294 172:0.08333333333333334 174:0.07254901960784314 2540:0.477124183006536 527:0.03594771241830066 2462:0.7745098039215688 1753:0.201797385620915 175:0.04411764705882353 1106:0.39705882352941174 654:0.11734997029114676 19:0.03594771241830065 922:0.20261437908496732 408:0.1627450980392157 410:0.29411764705882354 2542:0.16884531590413943 2541:1.0 1109:0.022875816993464054 189:0.14052287581699346 1108:0.13725490196078433 2543:0.39869281045751637 1483:0.1328976034858388 194:0.1715686274509804 1297:0.08088235294117647 309:0.31045751633986934 201:0.12091503267973856 2544:0.9281045751633987 30:0.12406834078660704 2545:1.0 1487:0.44199346405228757 2546:1.0 2472:0.3480392156862745 2547:0.06699346405228758 2548:0.12200435729847496 2550:0.4248366013071896 2549:1.0 679:0.22875816993464054 2364:0.411764705882353 551:0.5392156862745098 317:0.12254901960784313 2551:0.2696078431372549 319:0.11437908496732026 418:0.4803921568627451 2552:0.9509803921568627 2132:0.23202614379084965 322:0.10294117647058824 422:0.19526143790849676 1675:0.08660130718954247 216:0.054367201426024955 424:0.07189542483660132 953:0.11982570806100219 2554:0.5882352941176471 2553:0.13398692810457516 1592:0.13725490196078433 2555:1.0 324:0.061200237670825906 2557:0.31699346405228757 2556:1.0 325:0.201797385620915 1248:0.32352941176470584 2558:0.11546840958605664 327:0.07843137254901962 328:0.17647058823529413 2559:1.0 973:0.19607843137254904 429:0.1019607843137255 2560:0.24183006535947713 829:0.13398692810457516 2561:1.0 232:0.05119825708061003 830:0.057189542483660136 2562:0.2300653594771242 
4.897761269659043E-4 2.7366184941508793E-4 3.942159184722611E-4 2:0.8571428571428571 869:1.0 2563:1.0 35:0.8333333333333334 808:0.4028571428571429 1126:0.9714285714285714 781:0.3238095238095238 1738:0.09795918367346941 982:0.9809523809523808 11:0.2323809523809524 1780:0.3904761904761905 38:0.5428571428571429 12:1.0 2564:0.780952380952381 418:0.4666666666666667 41:0.8333333333333333 878:0.6000000000000001 815:0.42285714285714293 2565:1.0 1944:1.0 2147:1.0 43:0.11111111111111113 16:0.3466666666666667 2102:0.8000000000000002 406:0.2047619047619048 48:1.0 19:0.10476190476190476 20:0.8333333333333333 2566:1.0 260:0.45238095238095244 84:0.20952380952380953 89:1.0 227:0.20272108843537417 138:0.13609831029185868 2567:0.4666666666666668 331:1.0 430:0.38639455782312926 661:0.2357142857142857 29:0.2698412698412699 2568:1.0 97:0.4920634920634921 744:0.7142857142857143 
3.20576354963451E-4 1.8824000350843156E-4 2.6453937127349377E-4 1:0.08707865168539325 2569:0.29775280898876405 245:0.1772784019975031 2570:1.0 2571:1.0 1285:0.49438202247191015 2572:1.0 2573:1.0 65:1.0 2574:1.0 158:0.3932584269662921 2575:1.0 2576:0.3932584269662921 2577:1.0 2145:0.4681647940074906 352:0.13764044943820225 2120:0.2247191011235955 2251:0.5131086142322097 1072:0.2563840653728294 170:0.06882022471910113 2578:1.0 172:0.05730337078651685 2579:1.0 527:0.12359550561797752 2580:1.0 985:1.0 179:0.3932584269662922 2581:1.0 79:0.3932584269662921 2582:1.0 82:0.0943820224719101 188:0.3707865168539326 2583:1.0 363:0.8426966292134831 194:0.19662921348314605 364:0.6853932584269662 2584:1.0 30:0.10664301202444312 2585:1.0 545:0.23595505617977527 31:0.4449438202247191 312:1.0 1054:0.10486891385767791 206:0.3963227783452502 313:0.7453183520599251 2586:1.0 2164:1.0 2587:1.0 1056:1.0 1921:1.0 2588:1.0 753:0.22097378277153557 946:0.28089887640449435 2589:1.0 2590:1.0 43:0.5243445692883895 2591:0.6404494382022473 2592:1.0 2593:0.8202247191011236 129:0.39325842696629215 2594:1.0 767:0.3970037453183521 2595:0.29775280898876405 2329:1.0 2596:1.0 430:0.45585874799357945 2597:0.5955056179775281 2598:1.0 701:0.21694036300777872 1851:1.0 830:0.19662921348314608 2200:1.0 2177:0.9101123595505618 
6.792406739972404E-4 3.6432153966082766E-4 5.344575104142767E-4 1004:0.6000000000000001 1038:0.82 2473:1.0 564:0.3999999999999999 635:0.4733333333333334 674:0.84 972:0.8800000000000001 1330:0.47 616:1.0 1294:1.0 587:0.624 137:0.43 274:0.25157894736842107 2599:1.0 946:1.0 56:1.0 2600:1.0 453:1.0 1643:0.6933333333333332 
5.068386998195323E-4 2.7938159904220667E-4 3.9741381634433257E-4 1004:0.30612244897959184 1:0.31632653061224486 867:1.0 33:0.20991253644314864 1553:0.14965986394557826 2601:1.0 510:0.8367346938775508 108:0.6938775510204082 2602:0.836734693877551 2603:1.0 972:0.44897959183673464 246:0.4204081632653061 2604:0.23906705539358597 2605:1.0 874:1.0 274:0.3850698174006445 2537:0.4285714285714285 754:1.0 1537:1.0 2606:1.0 2607:1.0 2608:1.0 43:0.23809523809523808 172:0.20816326530612245 174:0.22653061224489796 2487:0.15816326530612243 623:0.629251700680272 459:1.0 329:1.0 225:0.7056928034371643 87:1.0 463:0.3440233236151603 1151:0.6802721088435374 2609:1.0 799:1.0 897:1.0 56:0.510204081632653 
2.3856417705716548E-4 1.3463108336726618E-4 1.962288153955705E-4 582:0.43427230046948356 2610:1.0 2611:0.16901408450704225 339:0.3061032863849766 64:0.1111111111111111 65:0.4178403755868545 2612:0.20845070422535214 2336:0.20657276995305163 1900:0.6009389671361502 2505:0.8685446009389671 2613:0.6338028169014084 350:0.29577464788732394 2443:1.0 2614:1.0 1977:0.38497652582159625 2615:1.0 844:0.049295774647887335 355:0.49295774647887325 2616:0.3114241001564945 2617:1.0 455:0.34037558685446007 258:0.09342723004694835 729:1.0 2226:1.0 79:0.1643192488262911 2618:1.0 2619:0.6009389671361502 2620:1.0 87:0.1533646322378717 89:0.08215962441314555 851:0.22263404991351618 2621:0.1737089201877934 606:0.25821596244131456 2622:1.0 25:0.18108651911468815 93:0.1643192488262911 741:0.23004694835680753 2623:1.0 1668:0.1643192488262911 2624:0.32629107981220656 1440:1.0 615:0.2165492957746479 2625:1.0 2626:0.4632237871674491 1738:0.048289738430583505 36:0.07511737089201878 2627:1.0 38:0.13380281690140844 2628:1.0 617:0.19248826291079812 1446:1.0 272:0.46713615023474186 1447:0.35211267605633806 2629:1.0 2630:0.10075839653304441 1644:1.0 2631:1.0 2632:1.0 621:0.3098591549295775 2528:1.0 2102:0.1971830985915493 127:0.3192488262910798 1023:0.3098591549295775 764:1.0 765:0.29107981220657275 129:0.1643192488262911 2633:0.19248826291079812 2634:0.6009389671361502 2635:1.0 2636:1.0 2637:0.6525821596244131 149:0.6807511737089202 898:0.46478873239436613 901:0.1971830985915493 1379:0.352112676056338 2638:1.0 2110:0.9953051643192488 2639:1.0 509:0.17840375586854462 288:0.3309859154929578 2640:1.0 399:1.0 2641:1.0 1284:0.4647887323943662 780:0.3474178403755869 156:0.1971830985915493 2642:0.11267605633802817 2643:0.21439749608763695 158:0.1643192488262911 2644:1.0 163:0.35211267605633806 646:0.06103286384976525 1157:0.9201877934272302 2645:0.9154929577464789 2646:1.0 1058:0.25633802816901413 2647:1.0 170:0.3163145539906103 2649:0.5915492957746479 2648:0.20657276995305165 2650:0.1924882629107981 19:0.10328638497652583 179:0.1643192488262911 2314:0.4064386317907445 301:0.06666666666666668 1631:0.20187793427230047 2651:1.0 198:0.10529845741113349 308:0.15710523302416124 2124:0.6901408450704226 2652:1.0 309:0.892018779342723 201:0.1737089201877934 30:0.13367926859402027 2653:0.2910798122065728 2654:1.0 2472:1.0 206:0.27599943092900836 2655:0.23004694835680756 1233:0.15140845070422534 2039:0.23004694835680753 685:0.11032863849765259 2656:1.0 2657:1.0 317:0.176056338028169 809:0.6056338028169014 689:0.24882629107981225 322:0.04929577464788733 2658:1.0 2659:0.4647887323943662 2660:1.0 49:0.06885758998435056 825:0.26760563380281693 329:0.07668231611893583 224:0.18309859154929578 1250:0.3286384976525822 429:0.7323943661971832 2661:1.0 2662:0.47887323943661975 573:0.12441314553990611 2663:1.0 237:0.1743796109993293 
2.1648715077493883E-4 1.2863315034257312E-4 1.7075292365415656E-4 2664:0.555 2665:0.8800000000000001 60:0.2066666666666667 246:0.41200000000000003 1857:0.0446875 248:0.0675 10:0.06 1067:0.18875000000000003 2336:0.11 2666:0.3875 2667:0.9025 2668:1.0 255:0.5075000000000001 2669:0.5475 1435:0.08750000000000001 260:0.23750000000000004 2670:0.285 2671:1.0 2672:0.8800000000000001 1437:0.5549999999999999 466:0.08 95:0.243 2673:0.075 2674:0.6285714285714287 2675:1.0 267:0.2025 1637:0.96 36:0.02 272:0.08291666666666667 274:0.031447368421052634 2676:0.88 2677:1.0 2678:0.08750000000000001 123:0.44999999999999996 279:0.15374999999999997 762:0.18375000000000002 765:0.155 2679:1.0 2680:1.0 2681:0.05125 1651:0.16 138:0.2679435483870968 2682:1.0 2683:0.18000000000000002 2684:0.07166666666666667 504:0.07750000000000001 2685:0.3875 2687:0.14833333333333332 2686:0.43750000000000006 780:0.09250000000000001 2688:0.9875 294:0.0775 296:0.10250000000000001 1791:0.12250000000000001 2689:1.0 298:0.0925 2690:1.0 170:0.0765625 2691:0.525 174:0.24975 2692:0.15125 2648:0.11 175:0.2025 301:0.07100000000000001 2693:0.6300000000000001 303:0.06 1631:0.1075 2694:0.34500000000000003 1483:0.10166666666666667 2187:0.6074999999999999 308:0.14640243902439026 2695:0.555 2696:0.34687500000000004 2129:0.47500000000000003 206:0.4996969696969697 211:0.25749999999999995 2697:1.0 1236:0.3625 318:0.265 41:0.08750000000000001 1243:1.0 322:0.052500000000000005 2698:1.0 1245:0.06166666666666667 324:0.046818181818181814 1247:0.43999999999999995 49:0.03666666666666667 1249:0.195 823:0.11750000000000001 327:0.3 328:0.26999999999999996 329:0.08166666666666667 1506:0.06 1806:1.0 330:1.0 2596:0.22250000000000003 2699:1.0 571:0.405 2700:0.8800000000000001 229:0.6970833333333335 2701:0.115 232:0.39166666666666666 234:0.26249999999999996 2702:1.0 2703:1.0 2704:0.8550000000000001 2705:1.0 839:0.66 840:1.0 347:0.18250000000000002 2506:0.21874999999999997 2706:1.0 2707:0.19999999999999998 355:0.0875 2708:1.0 593:0.07250000000000001 2709:1.0 2710:1.0 2711:1.0 360:1.0 2619:0.6399999999999999 2712:1.0 363:0.18749999999999997 1262:0.49000000000000005 2713:0.8550000000000001 2714:0.4875 366:0.03875 97:0.12916666666666665 2715:1.0 861:0.255 1079:0.14678571428571427 864:0.10125 103:0.21874999999999997 370:0.19500000000000003 616:0.0625 2518:0.5399999999999999 2716:1.0 1056:0.07416666666666667 38:0.07125000000000001 1367:0.1825 1639:0.16 2717:1.0 2718:0.9374999999999999 382:0.06 43:0.02916666666666667 383:0.019285714285714288 2719:0.3775 886:0.5028571428571429 127:0.085 1545:0.19499999999999998 1090:0.3 630:0.04 1091:0.04596153846153846 2720:1.0 2721:0.4050000000000001 396:0.14787878787878786 56:0.03125 1378:0.12 2722:0.0775 2723:0.555 1279:1.0 399:0.17750000000000002 2724:1.0 2725:0.44 400:0.5475000000000001 2726:1.0 2727:0.1175 646:0.0325 2728:0.135 1626:0.16 2729:1.0 172:0.03825 1290:0.27375000000000005 2730:0.1575 2731:1.0 2732:1.0 2733:0.2725 1572:0.6074999999999999 2734:0.5075000000000001 2735:1.0 30:0.09491228070175438 2736:0.1025 2737:0.48750000000000004 945:0.18375 422:0.149375 949:0.2375 424:0.16499999999999998 953:0.04583333333333334 2738:0.14250000000000002 425:0.030000000000000002 2739:0.4975 427:0.10999999999999999 428:0.20500000000000002 2740:0.20666666666666667 973:0.30000000000000004 227:0.05321428571428572 429:0.15600000000000003 430:0.10142857142857142 2741:0.029166666666666667 228:0.23666666666666666 701:0.24134615384615382 1601:0.2425 2742:1.0 2743:0.23166666666666666 
2.4206650930075205E-4 1.4632573164066257E-4 2.0175590191132315E-4 979:0.171875 2744:1.0 582:0.18066406249999997 245:0.06163194444444445 1894:0.14453125 438:0.73828125 248:0.10546875000000001 1425:0.38281250000000006 10:0.09375 2612:0.34687500000000004 68:0.9609374999999999 716:0.97265625 1900:1.0 440:0.1076388888888889 1904:0.3046875 454:0.546875 2745:1.0 2746:0.9335937500000001 18:0.205078125 725:0.16666666666666666 1726:1.0 727:0.095703125 598:0.1328125 1908:1.0 21:0.0947265625 2747:1.0 87:0.06380208333333334 851:0.3704769736842105 1042:0.3229166666666667 739:1.0 466:0.125 95:0.12656250000000002 741:0.38281250000000006 2748:1.0 471:0.42578124999999994 473:0.15401785714285712 33:0.040178571428571425 1914:0.96484375 1320:0.10546875000000001 1442:1.0 2749:1.0 108:0.1328125 1015:0.10156249999999999 1444:0.25390625 1915:0.12044270833333333 1738:0.04017857142857143 377:0.06640625 2750:1.0 38:0.111328125 1056:0.11588541666666669 1739:0.9492187499999999 274:0.02456825657894737 39:0.21732954545454544 489:0.12109375 119:0.3046875 2290:0.15848214285714288 42:0.134521484375 2751:0.39843750000000006 43:0.09114583333333333 759:0.16015625 2752:0.60546875 1147:0.3567708333333333 970:0.1171875 623:0.12044270833333331 2753:1.0 2754:1.0 2755:0.47265625 2756:1.0 2757:1.0 2297:1.0 498:0.1640625 630:0.1875 137:0.083984375 138:0.33492943548387094 773:0.3359375 500:0.2767857142857143 56:0.09765625 2758:1.0 152:0.06380208333333333 1:0.0302734375 3:0.07226562499999999 153:0.40234375000000006 635:0.046223958333333336 288:0.275390625 156:0.041015625 2643:0.3567708333333333 982:0.08046874999999999 2759:1.0 294:0.12109375 2760:0.9492187499999999 2116:0.08124999999999999 1387:0.16015625 646:0.05078125 2761:1.0 15:0.09661989795918369 168:0.109375 1058:0.060937500000000006 1478:0.42578125 2762:1.0 170:0.02392578125 172:0.07968750000000001 650:0.7734375 2763:1.0 654:0.046756628787878785 2314:0.5072544642857143 791:0.22330729166666666 2764:1.0 795:0.0702327806122449 2765:1.0 2021:1.0 22:0.28125000000000006 2766:1.0 538:0.18229166666666666 1950:0.35546874999999994 194:0.068359375 2767:1.0 2361:0.142578125 308:0.13071646341463414 2768:1.0 801:1.0 201:0.14453124999999997 30:0.09268777412280702 672:0.2734375 2769:1.0 2028:1.0 2770:1.0 206:0.18371212121212122 2771:0.43359375 1957:0.22265625000000003 2772:1.0 938:0.49023437500000006 317:0.14648437499999997 1583:1.0 319:0.41015625000000006 689:0.20703125000000003 2267:1.0 813:0.4583333333333333 815:0.6937500000000001 560:0.19140625 2773:0.8671875000000001 564:0.03906249999999999 2774:0.38281250000000006 2775:1.0 823:0.18359375 2196:0.359375 2776:1.0 51:0.24023437499999994 428:0.3203125 959:0.09375 225:0.04502467105263158 2777:0.43359375 2778:1.0 2780:1.0 2779:0.6015624999999999 2741:0.04557291666666667 829:0.16015625 2781:1.0 1062:0.23046875 
